,0,1,2,3,4,5,6,7,8,9,10,11,12,13,14,15,16,17,18,19,20,21,22,23,24,25,26,27,28,29,30,31,32,33,34,35,36,37,38,39,40,41,42,43,44,45,46,47,48,49,50,51,52,53,54,55,56,57,58,59,60,61,62,63,64,65,66,67,68,69,70,71,72,73,74,75,76,77,78,79,80,81,82,83,84,85,86,87,88,89,90,91,92,93,94,95,96,97,98,99,100,101,102,103,104,105,106,107,108,109,110,111,112,113,114,115,116,117,118,119,120,121,122,123,124,125,126,127,128,129,130,131,132,133,134,135,136,137,138,139,140,141,142,143,144,145,146,147,148,149,150,151,152,153,154,155,156,157,158,159,160,161,162,163,164,165,166,167,168,169,170,171,172,173,174,175,176,177,178,179,180,181,182,183,184,185,186,187,188,189,190,191,192,193,194,195,196,197,198,199,200,201,202,203,204,205,206,207,208,209,210,211,212,213,214,215,216,217,218,219,220,221,222,223,224,225,226,227,228,229,230,231,232,233,234,235,236,237,238,239,240,241,242,243,244,245,246,247,248,249,250,251,252,253,254,255,256,257,258,259,260,261,262,263,264,265,266,267,268,269,270,271,272,273,274,275,276,277,278,279,280,281,282,283,284,285,286,287,288,289,290,291,292,293,294,295,296,297,298,299,y
Bible,-0.43856,-0.69343,0.62769,0.22342,0.070167,-0.25064,-0.23724,0.65738,-0.16169,2.0643,-0.63522,0.091078,-0.071869,0.49651,-0.28638,-0.25753,-0.48111,0.78793,0.10312,-0.28869,-0.17295,-0.64263,0.17497,0.63447,0.12657,0.40005,0.15314,0.47964,-0.13453,0.27905,-0.41207,0.81477,-0.27994,-0.0099108,0.51396,0.33492,-0.3163,0.3681,-0.34482,0.58846,-0.22163,-0.47098,-0.23099,-0.26948,-0.13659,-0.20834,0.26116,-0.22021,0.4579,-0.14722,-0.95193,0.26713,-0.29622,0.17416,0.21538,-0.61359,-0.22333,-0.17978,0.0474,-0.16634,0.1286,0.22075,-0.11844,-0.4345,-0.11005,-0.23468,0.046594,0.31312,0.3651,0.67951,-0.61606,-0.10547,-0.089812,-0.46951,-0.071401,0.22457,0.35613,0.25036,0.010446,0.92113,0.54967,-0.31272,0.42845,-0.30184,0.71269,-0.16087,-1.2046,-0.6471,0.027777,-0.0010836,0.45845,-0.45935,-0.18541,0.06044,0.62931,0.52594,0.2892,-0.24685,0.42389,-1.1305,0.21353,-0.57116,0.27557,-0.081234,-0.26997,1.0351,-0.020068,0.34077,-0.049181,0.078396,0.26055,0.67173,0.23225,-0.52017,-0.40802,-0.096374,-0.16273,0.090203,-0.16209,0.094241,0.0069446,-0.87827,0.36695,1.3784,-0.097755,-0.13619,-0.25139,-0.53697,0.72774,-0.75887,0.35012,-0.090748,0.067011,0.026818,-0.47471,-0.21248,0.67289,0.19097,-1.1276,-0.43328,-0.66148,0.44906,0.027364,0.041639,-0.097109,0.50831,-0.21358,-1.036,-0.51616,-0.41427,-0.12581,0.33191,-0.15264,-0.096676,-0.37359,0.20921,-0.67391,-1.1815,-0.60095,-0.20534,-0.10052,-0.25746,0.070638,-0.0074569,-0.59578,0.92969,-0.20231,0.14813,0.13497,0.41046,-0.091815,0.60269,1.2097,-0.053595,-0.3423,-0.072893,0.017486,-0.14098,0.69778,-0.095842,0.26793,-0.09015,-0.30497,-0.29132,-0.25016,0.29238,0.089494,-0.080985,0.68024,-0.5166,-0.70384,-0.50291,-0.13405,0.57423,-0.22391,-0.13044,-0.82154,-0.19152,1.0515,-0.17466,-0.0062533,0.15165,-0.45599,-0.21486,-0.0074895,-0.31657,-0.09342,0.019864,-0.36908,0.58176,-0.030964,0.11804,0.64717,-0.43758,0.036794,-0.52044,-0.43527,0.26831,-0.3588,0.6268,0.36791,-0.74136,0.11504,0.60507,0.66557,0.34628,-0.055102,-0.74989,-0.2834,0.57949,0.44379,-0.028041,-0.16566,0.092418,0.26374,-0.06953,0.37344,-0.54115,-0.66453,-0.78404,-0.23858,-0.10722,-0.11867,-0.58177,-0.28857,-0.48764,-0.076345,-0.3845,0.065998,-0.16029,0.030887,-0.35872,-0.16594,0.34299,0.10327,0.76122,0.55064,0.21245,-0.029435,0.52374,0.29109,-0.069111,-0.099487,-0.013302,0.50215,0.35949,0.35913,0.43939,0.80478,-0.14232,-0.11474,0.038898,-0.090588,0.16799,-0.56871,-0.36354,-0.19048,0.74495,-1.0138,0.25712,-0.15145,-0.44095,0.46954,-0.96873,-0.11147,-0.23468,0.043806,0.24003,-0.61665,-0.38872,0.09756,-0.53,-0.58417,-0.17256,-0.30537,0.47147,0.214,0.19829,0.087531,-0.67672,4
FreeCell,1.0178,0.48739,-0.93328,-1.0858,0.012366,0.4962,0.33012,-0.20756,-0.23247,-1.0775,0.53129,0.21646,0.80995,0.41014,0.38899,0.94772,-0.18438,-2.0478,-0.31196,-0.40309,0.17008,-0.3714,0.76504,-0.43796,0.85375,-0.61111,0.15304,-0.2243,0.26243,-0.17338,-0.041378,-0.76834,0.16401,0.36771,0.074001,-0.394,-0.27508,-0.9466,0.34158,0.75485,-0.39981,0.38083,-0.054794,0.0005867,-0.18173,0.47244,1.0337,0.5681,-0.31742,0.58576,-0.33923,1.4888,0.31653,-0.12683,-0.45972,0.56112,-0.074007,0.16802,0.81519,0.3118,1.1659,0.78945,-0.50383,-0.54257,-0.52279,0.62456,-1.327,-0.38696,0.93632,-0.27903,0.03188,1.09,0.39548,0.45676,0.0062003,0.26919,-0.030682,0.061882,0.05195,0.67632,-0.26674,-0.5995,0.63113,-0.72175,-0.364,0.14904,0.19211,0.87366,-1.2592,-0.77063,0.20012,1.3921,0.41215,1.3772,0.14297,0.29471,0.32633,-0.31584,-0.36145,-0.038058,-0.39171,-0.18162,0.14372,-0.10665,-0.64938,0.0013519,0.28198,1.0134,-0.29158,0.12111,0.30113,1.1989,-0.1426,1.0397,-0.079835,-0.45149,-0.26988,0.31748,0.25606,0.23053,0.69319,-0.62418,-0.66949,-0.75846,-1.1575,0.14864,0.28865,0.19908,0.30765,0.56424,-0.15301,-0.9801,0.2768,-0.16062,-0.5999,-0.49329,0.095099,0.21699,-0.22261,0.93154,0.63979,0.4424,-0.046162,-1.1366,-0.43997,0.69933,-0.12557,-0.039774,-0.43118,0.45097,0.14511,0.44054,-0.18299,-0.31215,-0.3159,-0.11193,0.43318,-0.17779,-0.063841,0.20792,-0.40757,0.44243,-0.58196,-0.31858,1.0391,-0.5459,0.75908,-0.49572,-0.14215,-0.38357,-1.1435,0.74118,1.5188,0.15139,-0.0015564,-0.096269,-0.020952,-0.66983,0.33697,0.085452,-0.5483,-0.026198,-0.404,0.68327,0.057986,-0.53483,-0.48823,-0.20713,0.03802,-0.067473,-0.26574,-0.22601,0.42349,-0.31942,0.44195,0.067202,-0.15186,1.0172,-0.072745,-0.18257,-0.11733,-0.77488,0.86608,0.81167,-1.183,-0.14247,0.3619,0.84147,0.16994,-0.12981,0.18847,0.61083,0.12259,-0.70467,1.3639,-0.30278,-0.87164,-0.094393,-0.92504,0.063005,-0.29864,0.22509,-0.13183,0.065187,0.97205,0.23074,-0.21909,0.25158,0.28369,-0.04261,0.029136,0.94847,0.76208,-0.13842,-0.14148,0.39837,0.95441,-0.44616,-0.071392,0.63478,0.12817,1.0191,-0.74794,0.34637,-0.36933,-0.10559,0.67594,0.0010881,-0.47559,0.69162,-0.45372,0.098571,-0.095562,0.049253,0.3918,-0.1736,0.37927,0.40752,0.21418,-0.26519,0.46355,-0.24917,0.011719,-0.059915,0.7944,-0.15916,0.15187,-0.90486,-0.13814,-0.65094,-0.21523,-0.29747,-0.53757,0.39298,-0.413,-0.1792,-0.44514,0.14811,-0.67201,-0.28025,0.71758,-0.04616,-0.34652,-0.056112,0.64769,0.18875,-0.80564,-0.61071,0.2202,-0.22644,-0.054286,0.53649,-0.16502,0.63245,0.42299,0.51755,0.4067,-0.67817,-0.36657,-0.36394,0
Facebook,-0.040472,0.31256,-0.096823,0.50145,-0.43605,-0.45351,0.075457,-0.37294,0.1335,1.7353,-0.58051,-0.062609,-0.071993,-0.10423,-0.41802,0.78418,-0.31561,0.3575,-0.10964,0.6102,-0.24461,0.57334,-0.49939,0.21992,0.23392,0.21984,-0.010611,0.43447,-0.19849,-0.28215,0.72805,0.0023821,0.090018,-0.13592,0.010653,-0.17362,-0.14663,0.20371,0.13803,-0.52509,-0.56749,-0.74124,0.34195,0.24462,-0.060144,0.30864,-0.51004,0.25356,0.21633,0.10338,-0.23938,0.24305,0.032807,-0.21747,-0.47788,-0.48088,-0.089465,0.15413,0.22283,0.31268,0.25116,0.4087,0.041425,0.15859,0.10876,-0.31046,-0.45899,-0.39365,0.26759,0.13681,0.10499,-0.078071,0.59762,-0.47509,0.26292,-0.33229,0.5648,-0.22372,0.55741,0.93055,0.49801,-0.24144,-0.45842,-0.02492,0.58866,0.21192,-0.96741,-0.38199,0.64313,-0.15508,0.50112,-0.34675,-0.12554,0.39564,-0.27222,0.73005,-0.62448,0.21619,0.35183,-0.10355,0.16663,0.09009,-0.023675,0.0079209,0.0075359,1.1769,0.077501,0.1157,0.31493,0.41701,0.0082887,-0.37882,0.46684,0.14919,-0.50902,-0.30862,0.28141,-0.27118,-0.37813,0.52397,-0.26401,-0.29511,0.23987,-0.56873,0.14702,0.12252,-0.13165,0.0023624,-0.36207,0.1073,-0.60096,-0.51616,0.1632,-0.24495,-0.34804,-0.63481,-0.26557,-0.10437,-0.64072,0.037307,-0.91721,-0.11454,-0.010461,0.38158,-0.43131,-0.55637,0.1228,0.11573,-0.55884,0.19812,0.64383,0.26242,0.022137,0.241,-0.15884,0.42123,-0.13899,0.39717,0.32573,-0.65319,-0.16159,0.16606,-0.12221,0.00068474,-0.53889,-0.092041,0.23932,0.38697,0.0173,-0.18432,0.021439,-0.16798,0.65777,0.4369,0.2286,0.052634,0.35083,-0.23014,0.26636,-0.15675,0.020699,-0.089547,0.33766,-0.18498,0.17419,0.42329,-0.038737,-0.51292,-0.17647,-0.70858,0.32449,-0.34079,-0.18919,0.44419,0.60547,0.29078,-0.092716,-0.064906,0.39783,0.4572,0.11555,-0.39692,0.10695,-0.093185,0.024992,-0.30444,-0.15478,0.13976,-0.31618,-0.66705,-0.48893,-0.43713,-0.50466,0.32761,-0.3918,0.17505,0.39085,-0.29691,-1.263,0.21033,0.17794,0.67823,-0.60122,0.41528,-0.20946,-0.3152,-0.13377,-0.18769,-0.17063,-0.65078,-0.093553,0.39999,0.052573,-0.2531,0.54772,-0.061239,-0.32563,0.086222,0.20124,0.077178,-0.0064693,-0.16927,-0.26014,-0.10916,0.16365,-0.32849,0.22857,0.47433,-0.055207,0.21721,-0.18248,-0.36641,-0.24986,-0.4281,-0.080957,0.13071,-0.73041,0.26997,0.13464,-0.76745,0.54964,0.2942,-0.040686,-0.37776,0.30059,-0.10424,0.17666,-0.46646,0.91353,-0.026383,-0.20421,-0.14818,-0.087253,-0.095092,-0.10104,-0.74594,-0.58693,-0.40251,0.64692,0.29512,-0.51563,0.45554,0.25262,0.090994,0.01679,-0.057018,-0.0021356,0.2771,-0.064048,-0.38636,-0.66595,-0.014906,0.58474,0.03854,0.05806,-0.33912,-0.088924,-0.58675,-0.1795,0.74046,9
iQuran,-0.089017,-0.12533,0.13404,0.83611,0.72991,-0.35671,0.87507,0.36823,-0.42635,-1.1639,-0.12342,0.14837,0.40244,0.090991,0.20181,0.15469,1.2987,-1.025,0.5553,0.52039,-0.68822,-0.21826,-0.25529,0.38065,-1.2565,0.3536,0.090325,0.31309,-0.20273,2.0394,-0.38173,-0.45648,-0.19995,-0.20838,-1.2641,-0.55894,0.28496,-0.25557,-0.35094,0.31712,0.77687,-1.0968,0.34019,-0.1225,-0.29799,0.96907,0.29542,0.17352,-1.0644,1.3346,-0.13302,-0.75265,0.18956,-0.10636,-0.1769,0.28982,-1.2062,-0.54362,-0.33015,0.29418,0.099821,0.4249,0.060046,-1.0894,-1.248,-0.16898,0.60225,-0.28706,-0.26596,0.035038,-0.23086,-0.084503,-0.34057,-0.16972,0.26112,-0.73777,-0.51271,0.20679,-0.50041,-0.00047889,0.41908,-0.98141,0.11406,0.5992,0.12257,0.23777,0.14684,0.2817,-0.93808,-1.0937,0.87007,-0.42031,-0.086301,0.53409,0.25788,0.06661,0.24015,-0.35845,-0.48246,-0.37261,-0.52646,-1.7655,0.80944,0.58506,0.67245,-0.82702,0.2699,0.10176,0.010539,-0.10405,0.39183,0.56869,-0.052911,0.13195,-0.36176,0.0055497,-1.0361,-0.0020069,0.29732,0.91894,0.76233,-0.15951,-0.10927,-1.1606,0.13798,0.15188,-0.39703,-0.44542,0.97919,0.42428,0.91353,0.096653,0.6409,-0.60127,-0.84663,0.9319,0.78463,0.22626,-1.4521,-0.7659,1.078,-0.5467,0.042041,-0.72222,-0.22947,0.51333,-0.066798,-0.40621,0.71187,0.55712,0.46373,0.21532,0.21531,-0.14342,0.52204,0.73254,0.33868,0.24163,0.84495,0.34484,-0.16146,0.4477,-0.061079,0.20311,0.34511,0.14288,-0.58622,0.14346,-0.74044,-0.10221,-0.63077,-0.27029,0.36349,-0.2651,0.54049,-0.56921,0.22495,-0.78404,-0.42259,-0.21389,0.036671,-0.14269,0.13453,0.97785,-0.51141,-0.47008,0.34568,0.071201,-0.23401,-0.4324,0.99025,-0.13759,0.79646,0.02029,0.034157,1.1679,0.019856,-0.60776,0.7997,0.46452,0.86418,0.021842,-0.14556,-0.70762,-0.12013,-0.0070127,0.60675,-0.17761,0.40973,0.028478,0.74263,0.037348,-0.43364,0.34966,0.22749,-0.39643,0.27869,-0.39467,1.6263,0.38524,0.69771,0.22122,0.32398,-0.13692,-0.28037,-0.10634,-0.015735,-0.12645,-0.27812,-0.27371,0.99167,0.21572,0.13261,0.28963,0.048346,0.39103,0.66297,-0.52383,0.37631,-0.16516,0.18199,-0.17295,-1.3921,-0.61972,0.015774,0.19984,-0.039316,0.12722,0.12904,0.838,-1.024,0.071903,0.11501,0.15455,-0.53541,0.056641,-0.89293,1.4017,0.057953,-0.93733,0.23091,-0.96072,0.34778,-0.39417,-0.52556,0.056793,-0.5721,-0.50665,-0.35631,0.33409,0.77742,-0.68157,-0.17493,0.13106,0.033092,-0.83988,-0.55892,0.16302,-0.099644,-0.17519,-0.21372,-0.028247,-0.0081253,-0.52243,-0.71935,-0.54355,0.40401,0.47364,0.044455,-1.1412,0.81187,-0.84107,-0.23044,-0.35218,0.076622,-0.37448,0.058933,0.85655,0.58667,-0.64589,4
TouchOSC,0.62641,0.17758,-0.49005,0.36619,-0.24753,0.71713,0.41308,-0.9926,-0.72343,-1.4835,-0.24999,0.93329,-0.019923,0.3262,0.18765,0.034538,-0.58318,-1.4965,0.30908,0.15469,-0.4995,-0.27654,-0.35542,0.36038,-0.53069,0.17814,-0.082025,0.3171,0.17759,-0.38183,-0.80162,0.57881,-0.16115,-0.64098,-0.15948,0.30593,-0.39992,-0.42221,-0.33841,-0.069446,0.084713,-0.067904,-0.25922,-0.40181,-0.54759,0.35255,0.42861,-0.82818,-0.43621,-0.37733,-0.39391,0.01481,0.21151,0.28717,-0.048862,-0.77139,0.011613,0.3006,0.62699,0.35039,0.59716,0.56548,-0.84722,-0.50394,-0.26546,0.18631,-0.63427,0.25843,-0.36861,-0.43594,-0.66483,0.14456,-0.11484,-0.14977,0.66678,-0.0099611,0.74476,0.45219,-0.6222,-0.031592,-0.096414,-0.29828,0.73405,0.047102,0.16107,0.41347,0.22073,-0.3128,-0.73055,-0.61758,0.42164,0.098876,-0.82505,0.49048,-1.3691,0.33665,0.15056,0.1638,-0.50047,-0.1166,-0.33822,0.616,0.38137,-0.43501,0.41775,-0.53111,0.084106,0.24495,0.073336,-0.4481,-1.6854,0.50723,0.21287,0.327,0.56285,-0.30286,-0.0048039,-0.56069,-0.22841,0.019137,-0.41054,-0.39861,0.033477,0.16214,-0.64272,-0.41245,-0.82532,-0.13624,0.43743,-0.46289,-0.81843,-0.67368,-0.19418,0.02597,-0.17709,0.33552,0.66967,-0.033821,-0.39494,-0.25038,0.69661,-0.2751,-0.52224,0.095277,0.1868,-0.18979,0.38927,-0.39479,0.13466,0.056398,0.25072,-0.26636,0.30892,-0.022415,0.84798,-0.37726,-0.36277,-0.091524,1.0456,-0.10742,-0.060312,0.28491,-0.061455,-0.22253,0.73031,-0.083357,-0.42614,0.48906,-0.15565,-0.01882,-0.57893,1.1532,0.80211,-0.14967,0.70837,-0.073239,-0.64296,-0.35727,-0.73675,0.3912,0.34833,-0.21832,0.1752,0.072192,0.5769,-0.82475,-0.44057,-0.30218,-0.76629,0.11732,0.37786,0.83091,0.12061,-0.91987,0.34527,0.93955,-0.8549,-0.1988,-0.35006,0.063,-0.39916,-0.51173,-0.0079589,-0.0094029,-0.0027376,-0.55794,-0.25867,0.18289,-0.46259,-0.31194,0.15919,-0.040232,-0.38116,0.094389,-0.40773,0.15219,0.10552,-0.39361,0.22536,-0.32084,-0.33899,0.25753,-0.055586,-0.86738,-1.2638,0.5515,0.40124,-0.15399,-0.56938,0.0083487,-0.19066,-0.089233,-0.2485,-0.41861,0.57268,0.42773,0.019584,-0.85715,1.2371,0.27323,0.75258,0.013156,-0.68845,-0.15227,-0.68516,0.12983,0.18748,-0.40397,0.12091,0.09065,-0.19042,0.47082,0.12781,0.079729,-0.18892,-0.59779,0.15225,0.20148,-1.1907,-0.83625,0.44501,-0.68424,-0.35612,-0.14675,0.64654,0.66053,0.43583,-0.28188,0.29202,-0.21989,0.34829,-0.023516,0.26614,1.1433,0.15737,0.29447,-0.68586,-0.56328,-0.5145,-0.57631,0.18707,0.19378,-0.67039,0.53949,0.39087,-0.43011,0.059535,-0.42548,0.1158,-1.2687,0.67804,-0.11662,-0.32853,0.7098,-0.66897,-0.15197,0.63097,0.1507,-0.41661,0.13739,6
LinkedIn,0.32026,0.58153,-0.19503,0.47552,-0.26415,0.050688,-0.050144,-0.41382,0.22594,1.0962,-0.53684,-0.1027,-0.13868,-0.25032,-0.41033,0.58751,-0.3378,0.27399,-0.56366,0.2537,-0.040086,0.88618,-0.6085,-0.25311,0.33662,0.58263,-0.10111,0.79409,-0.061157,-0.35867,0.82144,0.57251,0.27761,-0.13797,-0.095564,0.079536,0.17554,-0.1192,-0.20168,-0.81588,-0.21886,-0.7443,0.16037,0.20407,-0.1164,0.23733,-0.10697,0.21285,0.43137,0.076209,-0.14472,0.54123,0.02658,-0.38957,-0.42971,-0.50967,0.0032874,0.22527,0.032017,0.31139,0.015274,-0.20592,0.19228,0.1525,0.59079,-0.09363,-0.4395,-0.41887,-0.20004,0.36914,-0.028076,-0.13315,0.91395,-0.11736,-0.41808,-0.14738,0.51672,-0.0011155,0.13541,0.72696,0.19997,-0.37713,0.17319,-0.17432,0.35113,0.37462,-0.69128,-0.16893,0.54718,-0.12178,0.98252,-0.86873,-0.083252,0.33184,0.062909,0.50096,-0.32579,-0.15251,0.36416,-0.14602,-0.20721,0.11939,0.00022376,-0.43298,0.094544,0.29109,0.39717,-0.27777,0.37507,0.52784,0.4438,-0.36325,0.54291,0.38418,-0.22397,-0.096184,0.61145,-0.22543,-0.26453,0.60977,-0.37078,-0.13401,0.15838,-0.41288,0.27381,0.48566,-0.23018,-0.15634,-0.13371,0.127,-0.77288,-0.38212,0.24305,0.024026,-0.42569,-0.68857,-0.2278,-0.28991,-0.81315,-0.32997,0.51515,-0.35946,-0.4175,0.24235,-0.61956,-0.39841,0.41716,0.019753,-0.040985,0.19702,0.87894,-0.071188,0.29729,0.41424,0.023866,0.28738,-0.24758,0.49226,0.4522,-0.76066,-0.32015,0.012901,-0.19815,0.0094751,-0.51445,-0.10169,0.23073,0.11165,-0.015064,-0.12698,-0.075478,-0.34411,0.52388,0.11105,0.11974,0.22108,0.3,-0.12707,0.35076,-0.15433,-0.04449,-0.049575,0.18491,-0.3549,0.32439,0.4473,-0.048854,-0.75272,-0.056916,-0.17634,0.7233,-0.028707,0.26167,0.48722,0.33813,0.36295,0.035044,0.20523,0.58391,0.21069,-0.010401,-0.41141,0.033501,-0.045275,0.026494,0.096448,0.082851,-0.3047,-0.01968,-0.59783,-0.4562,-0.4193,-0.45467,0.39378,-0.032091,0.40175,0.41716,-0.57696,-0.6641,-0.1618,0.13595,0.64625,-0.46851,0.73337,0.031927,-0.53109,-0.077937,-0.17534,-0.56622,-0.4496,-0.23374,0.63499,-0.38509,-0.26241,0.46841,0.20992,-0.49096,-0.13732,-0.0013623,0.05668,-0.0059002,-0.38228,-0.21845,-0.06916,0.2928,-0.59252,0.26723,0.32275,0.15959,0.28878,0.26599,-0.45278,-0.4926,-0.384,-0.10458,-0.78712,-0.20939,0.10024,-0.095953,-0.56786,0.71327,0.24969,0.13949,0.068482,0.1369,-0.34897,0.2476,-0.2188,0.82454,-0.018087,-0.57496,-0.043209,0.024205,-0.14526,-0.10953,-0.58232,-0.5179,-0.42166,0.29786,0.28716,-0.4421,0.47835,0.3084,-0.10733,0.52207,-0.90607,-0.067208,0.06297,0.03034,-0.066572,-0.2613,0.032967,0.51532,-0.023033,0.12181,-0.34004,0.047038,-0.45147,-0.21733,0.31018,9
Fieldrunners,0.28756,0.31392,-0.37575,-0.21579,0.22887,-0.81033,0.63846,0.34579,-0.12781,-1.2685,0.17679,-0.039209,0.38553,0.67509,0.24519,0.8657,0.61795,-1.4801,0.57234,-0.075524,0.35645,-0.16566,0.35373,-0.35943,0.11057,0.0012461,0.29484,-0.5178,-0.23886,-0.61842,0.44207,0.30921,0.24021,0.24133,-0.52242,-0.62955,-0.44479,0.227,0.14133,0.4833,0.85776,0.13362,-0.52901,-0.61768,-0.17082,-0.02438,-1.2963,-0.25076,0.018243,-0.15405,-0.38276,0.072475,-0.34869,0.21087,-0.059244,0.034472,-0.051276,0.16952,0.19563,0.48458,0.40593,0.026676,-0.11014,0.0034502,0.040805,0.36514,0.29116,-0.47506,-0.066511,-0.18768,-0.067769,0.75203,-0.43888,0.047994,0.35008,-0.4526,-0.2916,0.030247,-0.20327,0.40844,-0.0357,-0.70019,-0.06591,-0.2801,0.39654,0.23584,0.22642,-0.45586,-0.48774,-0.32587,0.76265,0.19076,-1.0017,0.70603,-0.49853,0.69609,-0.24758,-0.1524,0.38117,0.63953,0.64399,-0.13132,-0.57663,0.47468,-0.02552,-0.14659,0.17299,0.12834,-0.46513,-0.3934,-0.33113,0.19755,0.036486,0.35394,0.44163,-0.005056,-0.49699,0.40506,-1.0085,0.12419,0.26397,0.43761,-0.40897,-0.30359,-0.36754,0.90761,0.016896,-0.016175,-0.36452,0.19853,-0.011636,-1.0246,0.54558,0.19883,-0.0034058,0.46491,1.0262,0.13004,-0.34757,-0.61076,0.78716,-0.45099,0.1347,-0.25521,-0.32737,0.73482,0.57836,0.13549,0.4486,0.28724,0.35752,-0.48248,0.4711,0.26335,-0.77624,0.24264,0.30068,0.038205,0.75416,-0.58767,0.22065,0.49472,-0.27557,-0.076387,0.29297,0.42834,0.15551,-0.36723,0.13398,-0.40649,-0.19314,0.5411,0.33896,0.052904,0.36995,-0.10679,0.027857,0.045603,-0.76789,-0.092517,0.4958,-0.40054,-0.23283,0.3578,-0.27605,-0.49907,0.1144,-0.59624,-1.1111,0.50756,-0.1799,-0.40849,0.51618,-0.050606,-0.04146,0.91292,-0.38685,0.14297,0.32452,0.25185,-0.12359,-0.4074,0.047598,-0.012882,-0.16048,-0.54855,0.51276,-0.19834,0.77681,0.077855,0.60535,-0.67795,0.52574,-0.63269,0.0091746,0.35219,0.058922,-0.33894,0.3782,-0.031689,-0.27646,0.12687,-0.17378,-0.46101,0.40292,-0.86962,0.15236,0.83726,-0.44874,-0.88993,-0.37001,0.15605,-0.17729,-0.14777,0.47604,-0.043837,-0.23143,-0.28459,0.62669,0.35773,0.1403,-0.26075,-0.9503,0.22485,-0.4023,0.13714,-0.19036,0.5192,0.29487,-0.29141,0.22575,-0.11409,-0.30978,-0.011267,0.086273,-0.0096244,0.69556,0.65047,-0.19743,-1.5027,0.47895,-0.16634,-0.27629,0.30793,0.017699,0.19468,0.14956,-0.53847,-0.22901,0.24616,0.61884,-0.3331,0.37944,-0.50149,0.23299,-0.22422,-0.42453,0.0086145,-0.036952,-0.28082,0.0029138,0.29488,-0.68483,-0.19259,0.5706,0.17599,0.15566,-0.37249,-0.16939,0.12688,-0.37871,-0.59186,-0.17813,0.26832,-0.13479,-0.30033,-0.02285,0.027797,-0.60928,-0.52237,0
PAC-MAN,0.60165,-0.67461,0.55227,-0.32531,0.50557,-0.026906,0.20966,0.22258,0.67979,-1.4924,0.56939,0.25354,-0.6857,0.50943,0.11015,-0.17688,0.1428,-0.88893,-0.69108,-0.38798,-0.57789,-0.52146,-0.037705,0.1257,1.0856,0.28796,0.26125,-0.022699,-0.6582,-0.32573,1.0248,-0.44275,-0.28497,0.6265,-0.41519,-0.66569,-0.50604,0.27475,0.10431,0.59517,0.26129,0.3857,0.23747,-0.18084,0.065245,0.46494,-0.52233,0.53557,-0.62255,-0.13443,0.13391,-0.092918,-0.5181,0.71257,-0.35243,-0.013787,0.50275,0.12151,0.24501,0.52922,0.24812,0.060479,0.33087,-0.12264,0.050273,0.63693,0.27223,-0.51649,0.82274,-0.56776,0.03813,1.0217,-0.50093,0.1792,-0.15218,0.28366,-0.08279,-0.46992,-0.046946,0.26251,-0.024993,-0.4651,-0.044531,0.56641,-0.30627,-0.45922,-0.023834,-0.45404,-0.13733,-0.12524,0.022605,0.25313,-0.71354,0.34138,-0.092683,-0.37458,0.16841,-0.79894,-0.35885,-0.30456,-0.29404,-0.40106,-0.12971,-0.026555,-0.15243,-0.11337,-0.51573,0.15934,-0.21716,0.12885,0.42934,1.332,-0.38967,0.40886,0.057404,-0.64974,-0.18308,-0.090314,0.18433,0.43134,-0.95823,0.055719,0.17413,-0.3027,-0.36336,-0.0046163,1.0437,-0.051202,0.11696,0.20384,-0.76773,-0.75788,0.10959,0.17,-0.3696,-0.59518,0.031402,0.060466,-0.72727,-0.27266,-0.29858,-0.29698,-0.73414,-0.48561,-0.077145,-0.39308,0.063904,0.72824,-0.18625,0.13742,0.069819,0.28892,0.12178,0.039046,-0.14229,-0.018461,0.62715,0.17896,0.29924,-0.2086,-0.17221,0.13127,-0.61047,-0.11169,0.31075,-0.21631,0.60352,0.88169,0.51932,0.060592,-0.029608,0.21113,-0.027727,0.32523,-0.57442,0.83299,0.54992,0.22316,0.035677,0.42937,0.30386,0.29583,0.21682,-0.31082,0.73482,-0.35405,-0.40895,-0.20443,-0.32587,0.13732,-0.13795,-0.2853,0.95552,-0.38149,-0.11796,0.81466,0.66673,0.30189,-0.46125,0.079504,0.16743,0.065241,0.078638,-0.51065,-0.37251,-0.41071,0.31799,0.062616,0.74804,-0.077501,-0.063022,0.034565,0.22186,0.27702,0.22919,0.3278,0.54738,-0.86762,0.18972,0.21374,0.1162,-0.26502,-0.44603,-0.60514,0.31413,-0.11039,-0.49633,0.86142,-0.61352,-0.445,0.46306,0.29624,-0.55414,0.22825,0.95176,1.2763,-0.25992,-0.051716,-0.107,-0.055708,-0.086767,-0.45052,-0.80291,0.32102,-1.144,-0.057712,0.35493,0.17355,-0.036785,-0.22688,0.12744,-0.1743,-0.19152,0.35723,-0.51198,-0.45994,-0.24355,0.59246,0.63533,0.053394,-0.17124,-0.048977,-0.84781,-0.34444,0.033527,0.23906,-0.50378,-0.74711,0.63816,0.16986,-0.14999,-0.56669,-0.29032,-0.097829,-0.30291,-0.2907,-0.86003,0.92432,-0.41384,0.053179,-0.63783,0.25722,-0.81585,-0.26042,0.68691,-0.30886,0.26719,0.13507,-0.73483,0.28959,0.64672,0.30062,-0.29602,0.19002,-0.36445,-0.67701,-0.0048334,-0.37352,-0.030058,0.12202,0
WeatherPro,0.357,0.10208,0.72957,0.18206,-0.40767,0.36947,0.21626,0.58412,-0.16898,-1.4635,0.927,0.36921,-0.44154,0.19744,-0.1224,-0.25131,0.93718,-0.68885,1.021,-0.58584,-0.57087,0.16164,0.27589,0.9785,-0.44711,-0.019336,0.192,-0.54314,-0.84133,-0.012731,0.42725,-0.13687,0.15396,0.45715,-0.59257,0.2928,-0.8698,0.42877,0.16746,-0.36447,0.19239,-0.63206,-0.435,-0.27372,-0.73465,-1.4623,-0.018276,0.00075425,-0.19103,-0.3986,0.17213,1.0067,0.28759,-0.34694,-0.68162,0.78734,-0.36307,-0.37838,-0.90063,0.77131,-0.87776,0.6319,-0.088421,-0.76389,0.020891,-0.17739,-0.2199,-0.22693,1.0556,-0.6321,-1.129,0.49966,0.4008,-0.71463,-0.16414,-0.79473,-0.17429,-0.025376,-0.83498,0.49238,-0.3871,-0.57185,0.16317,0.072828,0.30201,0.6811,-0.40254,-0.5661,0.35442,0.26788,0.31989,0.32785,-0.1159,0.17568,-0.43286,0.4375,0.086124,0.52123,-0.0078398,0.39546,0.073375,0.2052,-0.67408,0.12862,0.087234,-0.77579,0.22348,0.4889,-0.34733,0.0612,0.14068,0.23997,-0.44935,0.31848,0.66512,-0.17022,0.38021,0.45156,-0.37342,-0.025787,-0.47905,-0.56598,-0.022433,0.063252,-0.23182,0.68839,0.59195,0.90729,0.73034,-0.89969,-0.0092508,-0.35394,0.15901,-0.3925,-0.96787,0.020945,0.028904,-0.17954,-0.51906,-0.1476,0.95288,-0.40316,-0.10902,0.26432,0.040604,0.057191,0.18947,-0.1911,-0.39816,0.77928,0.14761,0.32059,0.20137,-0.62195,0.60541,0.49955,0.33743,-0.37034,0.90649,-0.13701,-0.53517,0.26687,-0.12694,0.16413,1.239,0.33281,0.53859,0.61583,0.54144,-0.59777,-1.0447,-0.22466,-0.58957,-0.19338,0.29477,-0.19178,0.60528,-1.2416,-0.067763,-0.024304,0.047521,0.86515,-0.53446,0.21299,0.835,-0.73902,-0.26778,-0.49271,-0.78812,-0.11826,-0.34351,0.064494,-0.48027,-0.50541,0.069703,-0.095399,1.3881,0.129,-0.4845,-0.65999,-0.3589,0.15071,0.13398,0.068075,0.17057,-0.51885,0.11689,0.83613,-0.25,-0.14996,-0.23324,0.11454,0.68921,0.32843,0.0013553,0.66277,-0.3738,-0.39412,-0.01408,-0.98327,-0.2369,-0.25836,0.24866,-0.80114,0.35856,-0.37166,-0.54635,-0.89097,-0.7365,-1.2676,0.48589,0.15853,0.018343,-0.38634,0.61123,0.060873,-0.12716,-1.0032,0.49707,-0.27096,-0.23406,0.60861,-0.55696,0.17327,-0.46516,1.336,0.41255,-0.21428,-0.69102,0.6763,0.042059,0.50386,0.19334,0.25789,-0.019731,-0.67571,-0.0078427,0.9928,0.23738,-0.85474,-0.32363,-0.67123,-0.27064,-0.2486,0.025492,0.29698,-0.33074,0.65601,-0.41333,-0.25843,0.82854,-0.1892,-0.49206,0.31874,-0.4181,0.12733,-0.51965,0.070431,-0.020405,-0.60132,-0.093655,-0.3642,-0.15737,0.33082,0.20057,0.39632,0.072213,0.17172,-0.48837,0.13517,0.12778,-0.32275,-0.86456,0.57831,0.23162,-0.17271,0.14161,0.28545,0.44928,-0.093415,2
HotSchedules,-0.085098,-0.20785,0.71911,-0.47097,-0.068563,0.26687,-0.029747,0.66742,0.05603,-1.4299,0.14967,-0.21208,0.16434,0.36223,-0.18494,-0.44763,-0.28442,-1.1749,0.4796,0.10059,-0.075177,-0.2303,-0.22973,-0.58026,-0.93718,0.10603,-0.77397,0.73266,-0.23474,-0.043733,0.017383,0.16336,0.20933,0.038661,-0.60229,-0.052882,-0.33129,0.39701,-0.35768,-0.44711,-0.48067,0.13948,-0.12935,0.40919,-0.078781,-0.80327,0.23783,0.3279,0.19525,0.057901,-0.18644,0.096071,0.14457,-0.20878,-0.5576,-0.14589,-0.014804,0.39271,-0.16356,-0.37704,-0.10329,0.10333,0.40689,0.27098,-0.57458,0.51238,0.17913,0.50931,0.34917,-0.30114,-0.48505,0.57928,-1.2523,0.019972,0.056464,0.30294,0.47706,0.01929,-0.64918,0.50689,-0.19945,-0.42928,0.60146,0.15809,0.084871,-0.57798,-0.252,0.02536,-0.37304,0.66059,-0.47972,0.45761,-0.29178,1.0579,-0.27558,-0.097685,-0.99022,0.039067,0.44782,0.28919,0.2512,-0.50356,-0.12182,-0.43916,-0.33356,-0.77328,-0.16693,-0.22229,-1.106,-0.34035,-0.1063,0.68318,-0.45132,0.054306,0.21523,0.11699,0.81992,0.40107,0.018791,0.60075,-0.60459,-0.017094,0.13284,0.18198,-0.42624,0.40261,-0.28014,-0.4035,0.51162,0.2173,-0.84072,0.28441,0.020967,0.35338,-0.90482,0.038498,0.15381,0.178,-0.4053,0.47892,0.44363,0.13379,-0.33209,0.54113,-0.22466,0.086322,0.83374,0.39302,-0.043236,0.31333,0.26438,0.19277,0.22745,-0.42121,-0.091262,0.68368,0.81269,0.35806,1.1375,-0.14228,-0.39438,-0.0044717,-0.2581,-0.28775,1.0419,1.2825,0.38519,0.22733,-0.42871,0.038128,0.54635,-0.16859,0.27528,0.50427,0.088439,-0.011345,-0.41787,0.46994,-0.49919,-0.070745,0.31089,0.62349,-0.66989,0.95249,0.81936,0.38818,-0.45267,0.24907,-0.14869,0.2345,-0.28204,-0.16835,0.13664,0.15067,-0.88636,-0.2297,0.16278,0.79934,-0.24462,0.64373,0.075841,0.55663,0.21265,0.64308,-0.035404,-0.92179,-0.31109,0.6243,0.50769,-0.12582,0.15101,-0.14251,-0.15724,0.31822,-0.1923,0.27784,0.34453,-0.30715,0.74392,0.16092,0.11442,0.18113,-0.23043,-0.53637,-0.68995,-0.24056,0.39237,-0.98042,-0.58506,-1.3693,0.51756,0.12642,-0.087543,-0.33296,1.1715,-0.36958,-0.30572,-0.71302,0.16585,-0.32344,0.29823,0.29167,0.034418,-0.29819,0.54493,0.14676,0.068681,-0.98096,0.091614,0.27965,0.46648,0.16265,0.019707,0.50544,-0.26914,-1.7204,-0.91082,0.70414,0.029455,0.11291,0.24687,-1.1599,-0.45162,-0.13977,0.87585,0.22056,-0.46959,-1.1324,-0.90149,-0.27539,-0.00036781,-0.49109,-0.04535,0.38589,-0.039891,-0.49285,-0.077146,0.44641,1.1498,0.047891,-1.1804,-0.25612,0.21501,0.011815,0.33586,0.16682,0.22422,-0.13368,-0.54648,0.044638,1.2618,-0.34465,-0.088835,0.15211,0.69277,-0.088797,-0.15879,0.3564,-0.26115,-0.22598,11
Target,-0.12318,-0.005105,-0.78158,0.13234,0.14363,-0.22058,-0.10755,0.061316,0.13182,0.67513,-0.82392,-0.10079,0.14465,-0.31034,0.092701,0.13599,0.11323,0.73816,-0.045394,0.012862,0.10976,0.26038,0.20449,0.29324,-0.19609,0.30062,-0.59931,0.10907,-0.27127,0.021014,-0.29598,-0.28849,0.20562,0.17715,0.22306,-0.16444,0.12495,0.2178,0.14862,0.63951,0.058911,-0.14429,-0.13811,-0.29013,0.32969,0.0023467,-0.62045,0.44924,-0.34294,0.49351,0.15854,0.12133,-0.012438,0.36486,0.24673,-0.67721,-0.53058,0.27954,0.24669,-0.32975,-0.16296,-0.078057,0.13645,0.022076,0.082019,-0.38794,0.27178,-0.39131,0.12172,0.1077,0.50516,-0.0592,0.39383,0.25043,0.12883,0.25458,-0.13565,-0.32016,-0.17163,0.49472,-0.20583,-0.46652,0.18328,0.29534,0.38392,0.20667,-0.62902,0.83325,0.45241,0.28817,0.33138,0.56013,0.38755,0.085168,0.085816,-0.036652,0.034715,0.5699,0.54377,0.19399,-0.28474,0.12837,-0.5038,-0.077649,-0.021908,1.1238,0.32168,-0.23778,-0.30802,0.0067283,0.70201,-0.50527,-0.21904,0.39405,0.21377,0.45166,0.61184,-0.11116,0.20346,-0.010718,0.21688,-0.16173,0.29029,-0.012315,-0.16276,-0.11583,-0.53818,-0.087249,-0.90536,-0.08259,-0.54072,0.29371,-0.17433,-0.050772,-0.096601,-0.22138,-0.15409,-0.35979,-0.24077,0.63283,0.17008,-0.023222,0.015342,-0.2081,-0.73638,0.11114,0.43256,0.10876,0.21088,0.019873,0.071177,-0.21642,-0.32568,-0.29175,-0.36418,-0.2677,-0.22242,0.32532,-0.52647,-0.65649,-0.88996,0.0081623,-0.21155,0.23192,-0.37875,-0.13613,0.23891,0.45297,0.33321,0.22983,0.58866,-0.084509,-0.47549,-0.14749,0.096449,-0.15668,-0.075053,0.37143,-0.014495,-0.15838,0.11353,-0.75727,-0.1162,-0.20905,-0.44975,0.37235,0.070911,0.16825,0.091537,0.33943,-0.22699,-0.29504,-0.078024,-0.048488,0.41607,-0.17405,0.17106,0.031685,0.2974,-0.13422,0.072157,-0.65638,-0.20816,0.46977,0.50392,0.48873,0.01551,0.32877,0.23191,-0.19428,0.70547,-0.13691,-0.62909,0.12141,0.049872,-0.60692,-0.17717,0.25753,-0.83311,-0.040679,0.62909,-0.15996,-0.36629,-0.32198,-0.0079962,0.0018671,0.27613,0.018631,0.0058261,-0.049926,-0.17712,-0.12635,0.74223,-0.34555,-0.11249,-0.85975,0.29686,0.036524,0.23676,0.72374,-0.22888,0.18597,-0.47463,0.25319,0.040774,-0.044519,0.23138,0.3363,0.15424,0.63871,-0.31598,0.3603,-0.22372,0.069095,0.49287,0.23995,-0.35508,0.54793,-0.81946,0.078357,-0.18423,0.0032577,-0.3346,-0.25975,0.048119,0.65859,0.60185,0.11636,0.5912,0.38087,0.18323,0.16817,-0.43095,0.080506,0.16811,-0.25433,-0.25319,-0.048213,0.0094443,0.53939,-0.1318,0.13087,0.11952,-0.13513,-0.087308,-0.18781,0.37076,0.17812,-0.2269,-0.13757,-0.36032,0.1991,0.6452,0.22518,-0.53931,-0.067908,-0.8183,-0.50677,-0.13974,0.17002,3
Touchgrind,0.82424,0.14429,-1.3154,-0.14995,0.6661,-0.24552,0.40318,0.17597,-0.82433,-1.4328,0.5454,1.1714,-0.87748,0.24645,0.792,0.93863,0.1401,-1.7212,0.27588,-0.11192,-0.1446,-0.37559,1.1267,-0.61821,-0.14023,-0.17016,0.63206,0.31851,0.12809,0.67114,-0.29921,0.076769,0.51289,-0.57728,-0.18999,-0.4524,-0.14994,0.41197,0.018969,0.61614,-0.065158,0.10513,-0.090924,-0.099541,0.48769,0.058268,-0.59924,-0.35255,-0.321,0.48398,-0.26559,0.18864,0.22925,0.91364,-0.030493,-0.61247,0.55571,0.16066,0.93472,0.51073,0.53374,0.06376,0.32849,0.41319,0.54653,0.23824,0.50397,-1.096,-0.97998,-0.86292,0.34598,0.066488,0.24308,0.26763,-0.030896,-0.95004,-0.083568,0.52845,-0.6077,0.16844,-0.44461,-0.66931,0.19849,-0.6824,-0.71103,0.74409,0.83224,-0.10214,-1.7237,-0.43997,0.64978,0.18332,-0.45948,0.3883,-0.75664,0.9691,-1.1666,-0.3917,-0.67612,1.1045,0.89668,0.12889,0.38164,0.14991,-0.084194,-0.43598,0.7808,-0.24403,-0.3829,-1.2046,-0.34157,-0.068038,0.11512,-0.95106,-0.41537,0.71907,0.019671,-0.15848,0.12611,0.55345,0.10253,0.1122,-0.4999,0.27067,-0.13883,0.62466,0.0018357,-0.26007,-0.22593,-0.39103,0.42692,-0.19682,0.12177,-0.055564,-0.062005,-0.12973,1.0119,0.48751,-0.082863,-0.67825,0.81603,0.23046,0.10979,0.10086,0.19305,0.26251,0.52211,0.28995,0.67288,0.11044,0.35823,-0.063447,0.10115,0.057421,0.1586,0.00062063,-1.127,-0.18778,0.38545,-0.54399,0.57516,0.65839,0.25438,-0.24634,-0.095448,0.73178,-0.051413,-0.60659,-1.4009,-0.20597,-0.16467,0.067343,1.0903,-0.085445,0.36145,-0.3873,-0.10106,-0.88847,-0.36586,0.23315,0.038783,-0.16849,-0.07379,0.66869,0.20123,-0.80936,-0.14272,0.10947,-0.17835,0.24168,-0.77322,-0.33405,-0.32084,-1.1134,-0.068142,0.5551,0.18312,0.066606,0.26229,0.54185,-0.19504,0.63464,0.96863,0.55232,-0.077337,-0.25667,-0.62202,0.22176,0.45487,0.78167,0.0050575,-0.47327,-0.10166,-0.07638,-0.39314,0.05004,0.033594,-0.40929,0.89429,-0.31418,-0.85591,-0.41885,-0.99966,-0.35385,-0.91351,-0.0041712,1.0459,0.71826,-0.60169,-0.89301,0.017672,0.12665,0.098952,-0.23653,0.8362,0.63053,-0.33962,0.66278,0.41213,0.30427,0.35112,-0.24099,-0.50298,0.076094,0.22716,-0.45456,-0.34462,0.88253,0.037995,0.42814,0.76922,-0.68288,-0.50868,-0.3096,-0.077423,0.34771,-0.12002,0.63607,-0.032078,0.024094,0.86952,-0.29517,-0.45971,-0.26084,-0.080189,-0.54035,0.33878,-0.062766,-0.31853,0.24382,0.035902,0.041672,-0.19893,0.37493,0.32535,-0.54938,-1.0754,0.12173,-0.68073,-0.89178,0.34767,-0.18859,-0.24222,1.1236,0.69373,-0.078063,-0.17086,-0.18451,-1.0946,-1.4213,-0.36314,0.0033612,-0.24983,0.81822,0.078229,-1.2144,0.2167,0.01826,-0.081646,0.17078,0
MASH,0.30165,-0.36303,-0.071462,-0.22857,-0.18445,-0.40178,-0.37215,0.26349,0.4937,-0.82275,-0.054056,-0.11939,-0.30321,-0.060191,-0.12394,-0.94006,0.064498,-0.40282,0.29462,-0.25473,0.066015,0.19999,-0.066166,0.49002,-0.0014896,0.041492,0.11196,-0.17639,-0.2493,-0.22059,0.59055,0.15629,-0.17137,0.52285,-0.033201,-0.13895,-0.28808,0.70595,0.042153,0.14362,-0.1028,0.49593,0.47743,0.21658,0.12138,0.81724,-0.074738,-0.16709,0.14305,-0.2912,0.99338,-0.36065,0.42436,0.139,0.065487,-0.28638,-0.097897,0.13171,-0.12868,0.12274,-0.5763,0.40774,-0.33133,0.042721,0.49039,0.31175,-0.12311,-0.5058,-0.36596,0.068261,0.45321,-0.39579,0.30219,-0.1148,0.064117,-0.30532,-0.046417,-0.3822,-0.13555,0.039674,0.21361,-0.027263,0.39806,-0.43449,0.040337,0.77538,-0.9804,-1.3821,0.093422,-0.83566,-0.19444,-0.017745,-0.5101,-0.33883,-0.73694,-0.18167,-0.21288,0.46001,-0.27809,-0.079422,0.29967,0.024444,-0.41953,-0.30716,-0.024108,0.25139,0.25363,-0.67381,0.39745,-0.21833,-0.34879,0.61785,-0.26356,0.20601,-0.17272,-0.22949,0.52244,0.45563,0.23866,0.66206,-0.056238,0.11641,0.1672,-0.044069,0.35289,0.077174,0.62595,0.35636,-0.46409,0.53604,0.075099,-0.3822,-0.2688,0.28271,-0.30723,-0.2321,0.47671,-0.061356,0.37961,0.052716,-0.21326,-0.20739,0.68175,0.35776,0.30777,-0.18897,0.05042,0.28583,0.39112,-0.13814,-0.65235,0.016654,-0.36133,-0.18804,-0.22862,-0.45821,0.033653,-0.55753,-0.015933,0.52917,-0.33361,-0.12871,0.13804,-0.5209,0.27792,-0.20793,-0.10587,-0.054643,-0.33671,-0.00036232,-0.012997,-0.18721,-0.20398,-0.37701,0.62627,0.15145,-0.42471,0.4804,0.035281,-0.07945,-0.42049,-0.35637,0.02115,0.12305,0.39289,-0.3486,-0.44765,-0.14552,-0.14359,-0.91387,0.2412,0.56341,-0.013768,-0.5678,-0.13987,-0.12776,-0.030914,-0.036435,-0.41861,0.20135,-0.33244,-0.3132,0.06107,-0.11073,-0.39458,-0.72957,0.32814,-0.34674,0.18625,0.76585,0.12338,0.27139,-0.3621,-0.71572,0.11899,0.20944,0.5701,-0.24061,-0.16375,0.042369,-0.334,0.22184,0.13597,0.04331,0.13619,-0.12346,0.2294,0.071998,-0.19095,-0.33758,-0.12762,0.20517,0.31076,-0.23717,0.089986,0.28725,0.049075,0.060418,0.067482,0.0042533,-0.30811,0.50228,0.024567,0.11436,0.23242,0.57312,-0.18703,-0.09571,0.019084,-0.062448,-0.025135,0.030259,0.24918,-0.23259,-0.41137,-0.86572,0.82429,1.1059,-0.17583,-0.33219,-0.82091,0.20218,-0.38455,-0.26827,0.061784,0.74972,0.20343,0.21767,-0.07138,0.23419,0.09768,-0.10707,0.080406,-0.073819,-0.32931,0.33655,-0.15733,-0.18446,-0.47394,0.2179,-0.22303,0.079907,-0.35674,-0.17971,-0.4673,-0.050609,0.033626,0.025511,-0.40916,-0.31442,0.20203,-0.23556,-0.10119,0.6553,-0.46281,-0.47466,-0.31032,-0.11845,0.15773,-0.44047,0
Skat,-0.4382,-0.082506,0.65521,-0.76774,0.11672,0.80861,-0.37808,0.52499,-0.28768,-1.4944,0.63957,-0.47377,-0.47598,0.90402,-0.16545,0.14334,-0.45053,-1.8838,-0.084266,0.01278,0.76971,-0.40174,-0.070198,0.63158,0.66311,-0.15287,0.58896,-0.15668,0.14743,0.12478,-0.34857,0.049023,0.0078787,-0.046656,0.0048134,0.24597,-0.098131,-0.13688,0.22583,-0.19651,-0.13076,-0.27226,-0.2296,-0.23779,-0.18644,-0.17429,-0.46711,-0.70198,-0.25077,0.070821,0.19183,-0.32791,0.1453,0.65411,-0.14182,0.17185,-0.6126,-0.16123,0.04551,-0.062336,-0.054019,0.65702,0.086779,0.0024671,-0.06753,0.23894,0.43129,0.59946,0.7972,-0.25484,-0.054326,-0.44871,0.1346,-0.49638,-0.24045,0.39058,-0.073955,-0.34336,0.25443,0.41864,-0.075288,-0.2636,-0.76063,-0.06327,0.20484,0.52337,-0.14027,0.075728,-0.05453,-0.048704,0.34577,0.30585,0.011077,0.37383,0.064194,0.34698,0.35285,-0.40775,-0.31173,0.27385,-0.2476,-0.12516,-0.4093,0.49556,0.25579,-0.12899,0.52261,0.29753,0.10479,-1.1889,0.18419,0.30653,-0.37528,0.39898,0.18699,0.095679,-0.55071,-0.31731,0.21849,-0.39907,0.68908,0.13243,0.090194,-0.57407,0.1159,0.18689,0.85248,0.02759,0.2251,-0.14765,-0.18304,-0.20058,-0.17286,0.29657,-0.32154,0.48336,0.03732,-0.083704,0.20577,-0.25,0.24713,-0.20978,0.50723,-0.28219,-0.22008,-0.2166,0.29363,0.18064,0.18466,-0.054782,-0.49861,-0.20398,-0.73717,-0.42959,0.11738,-0.28087,-0.40128,0.433,-0.51319,-0.34159,0.059463,0.01215,-0.10801,-0.1755,-0.068733,-0.55095,-0.089579,0.44148,-0.46853,-0.088571,-0.60295,0.41741,-0.26972,0.29411,0.067664,-0.4292,-0.2979,-0.4323,-0.30354,0.94622,-0.23034,0.22393,-1.0638,0.14771,-0.47665,0.40632,-0.72555,0.20058,-0.43454,0.031146,-0.28121,-0.60685,0.38147,-0.56837,-0.19893,0.18534,-0.13994,-0.10173,-0.39402,0.24042,-0.010163,0.031491,-0.49809,-0.24855,0.042748,-1.1228,-0.036388,0.78991,0.17074,0.083755,-0.017079,0.10997,-0.31955,0.40737,-0.0076062,0.21203,0.20895,-0.01912,0.29602,0.17846,-0.039985,0.11597,0.5709,-0.074375,-0.76159,-0.017585,-0.15326,-0.28187,-0.077273,0.85344,0.1962,0.20144,-0.31208,-0.63147,0.41856,0.84141,-0.24249,0.054826,0.047031,-0.45709,0.11359,0.60417,0.75388,-0.19302,-0.90614,-0.37117,0.21326,-0.14032,0.037897,0.36323,0.34317,0.24028,-0.0033247,0.23976,0.49157,0.074666,-0.58027,-0.075086,-0.28149,-0.29785,0.29458,0.11515,-0.25519,-0.078186,-0.25272,0.058781,0.44218,0.27265,-0.2087,-0.15368,0.37544,0.41112,0.090612,0.62034,0.31344,0.13801,0.657,-0.41872,-0.37808,-0.7783,0.65454,0.074623,0.54461,-0.12793,-0.3392,-0.23069,-0.48103,-0.31495,0.094753,0.057706,-0.07964,-0.45081,0.27375,-0.11717,0.23802,0.21552,0.44885,-0.73746,0.7145,-0.11201,0
Tumblr,-0.2577,0.15885,-0.23516,0.32374,-1.2569,-0.28246,-0.54848,0.13115,-0.266,0.30189,0.079457,-0.22834,0.15221,0.37581,-0.56059,0.61486,-0.49801,0.27524,0.28025,0.85623,0.43392,0.37566,-0.72969,-0.045668,-0.17103,0.94325,0.2635,0.15348,-0.14206,0.021608,0.74507,0.39798,0.18138,0.20939,-0.21792,-0.0049878,0.14581,-0.41189,0.12427,-0.45838,-0.61436,-0.044134,-0.0089778,0.30472,0.13999,0.10157,-0.17928,0.79277,-0.44826,-0.2071,-0.34711,-0.39179,-0.0048334,-0.29597,-0.3944,-0.6015,-0.11396,-0.19041,0.27094,-0.2473,0.047021,-0.05033,-0.0010104,0.32107,-0.36732,-0.17113,-0.45588,-0.29661,-0.081134,0.16669,0.077445,-0.063351,0.11253,-0.39869,-0.05738,0.27234,0.53365,-0.072535,0.20421,0.91292,0.46087,0.30561,-0.37975,0.27031,0.38369,0.30382,-0.18235,-0.42306,0.74231,-0.21898,0.21765,-0.41908,-0.75133,0.13872,-0.5381,0.81554,-0.322,-0.074234,0.088334,-0.4883,-0.012646,0.14988,-0.2086,0.023296,0.28476,1.075,0.19814,-0.38697,0.3173,0.092032,-0.29116,-0.35526,0.54556,-0.25661,-0.68268,0.32371,0.17199,-0.21017,-0.25686,0.30597,-0.16839,0.028262,0.29876,-0.40901,0.2055,0.2626,-0.014937,-0.16617,-0.19882,0.24225,-0.29633,-0.54211,0.13228,0.21111,-0.058947,-0.529,-0.06282,-0.3696,-0.58573,0.20368,-1.3369,-0.55469,-0.040849,0.42003,-0.15018,-0.33909,0.19402,-0.43114,-0.67823,0.31526,0.39868,-0.045721,-0.19532,0.4171,0.20847,-0.077129,0.050728,-0.20793,0.56807,-0.63694,0.078721,0.0063674,-0.31505,-0.0074711,-0.41553,0.48433,0.095219,0.23691,0.2928,-0.30348,-0.47078,-0.19368,0.42899,-0.12537,0.11129,0.43934,-0.073946,-0.19616,0.21103,-0.5893,0.13752,-0.22993,0.2278,-0.083519,0.14602,0.18183,-0.30134,-0.33306,0.024073,-0.86606,0.47134,0.045402,-0.15489,-0.15588,0.83619,-0.27362,-0.13014,0.12943,0.3885,0.11891,-0.24092,0.039357,0.006324,-0.3818,0.17369,-0.11081,0.30839,0.070455,-0.43192,-0.52624,-0.47352,-0.26933,-0.31516,0.063609,-0.14459,0.64334,0.51809,-0.084164,-0.069278,-0.34606,-0.094695,0.7661,-0.82356,0.44502,0.032395,-0.66608,-0.28018,0.28728,-0.23095,-0.80771,-0.074891,0.27836,0.28108,-0.014719,0.54138,-0.44915,0.16745,-0.047726,0.97351,0.03941,0.10526,-0.086994,-0.45592,-0.23218,-0.14556,-0.089478,0.39655,0.062035,0.088302,-0.42127,-0.35985,-0.73257,-0.12029,0.10793,0.10057,-0.52181,-0.60005,0.24358,-0.043005,-0.60704,-0.011157,0.55509,-0.64432,0.027295,0.25619,-0.027357,-0.028157,-0.098597,0.49791,0.018849,-0.47132,-0.62063,-0.3298,0.057639,0.098922,-0.82515,0.022121,0.12784,1.1152,0.31785,-0.2858,-0.094126,-0.41695,-0.014562,-0.10026,0.0032461,-0.087714,0.25768,0.070808,0.16305,-0.42321,-0.39493,-0.034818,0.46205,-0.19081,-0.48148,-0.1413,-0.47802,-0.63177,0.78497,9
DIRECTV,0.26938,-0.10768,0.01636,-0.35084,0.75471,-0.29811,0.27796,0.23693,0.027189,0.67267,0.20635,-0.12905,-0.080996,-0.29554,0.29061,-0.84975,0.29219,-0.036875,0.17193,-0.45564,-0.15289,-0.075267,-0.080106,0.52459,0.032934,-0.55637,-0.45069,0.15264,0.13834,0.19937,0.48449,0.22825,-0.17468,0.4448,-0.0044872,0.27719,-0.31744,-0.065949,0.20005,0.098369,-0.050367,0.57892,0.78166,-0.11241,-0.00085102,0.75106,-0.091622,0.60485,-0.07904,-0.26309,0.10818,-0.31497,-0.43816,-0.11541,0.028671,0.22093,0.9981,-0.10001,-0.21888,-0.1429,0.2456,0.40047,-0.3092,0.47747,0.33918,0.62893,0.57093,0.20253,0.27544,-0.84354,-0.26715,0.4245,0.11291,-0.21791,-1.1181,0.21928,0.34232,0.44896,0.037793,0.768,-0.15813,0.11803,0.10956,-0.17933,0.61961,-0.34122,-0.84856,0.62702,1.2412,-0.73421,0.025695,0.88788,-0.15954,0.63947,-0.063269,0.16933,-1.041,-0.095042,0.040663,0.7628,-0.3624,0.067194,-0.26263,0.10291,-0.64786,0.083403,0.67644,-0.43379,0.42507,0.24625,-0.6077,0.024278,0.47467,0.20045,0.33642,0.076939,0.73467,0.14826,0.61246,0.1564,0.019471,-0.75009,-0.37097,-0.1859,0.76175,-0.074105,0.0013024,0.13887,-0.2032,0.30254,0.014275,-0.07092,0.16336,-0.51287,-0.078294,1.0293,-0.17506,0.0022399,-0.29811,0.062717,0.57119,0.91994,-0.37173,-0.13929,-0.033224,-0.17658,0.75557,-0.074515,0.49913,0.37525,-0.23462,0.15215,0.55429,-0.044001,-0.61701,-0.052399,0.41275,-0.37327,0.3876,0.6308,-0.75955,-0.11094,-0.70294,-0.19417,0.22686,0.2431,0.56452,0.29347,0.16307,-0.49716,-0.29274,-0.91033,0.27654,0.14659,0.35581,0.083361,-0.60006,-0.49898,-0.63314,0.51806,0.43518,-1.0335,-0.072641,0.46312,0.046765,-0.19111,0.035928,-0.7516,-0.10344,-0.28013,0.020013,-0.23515,0.71776,0.43729,-0.3445,0.081143,-0.61053,0.40069,-0.10816,-0.14336,0.19896,-0.070334,0.65767,-0.21181,-0.31753,0.31578,0.090576,-0.46461,0.2783,-0.058292,-0.98442,-0.35958,-0.14604,-0.3254,-0.20305,-0.22098,0.029763,-0.18209,0.044515,0.2818,0.17388,-0.44172,-0.28998,-0.037327,0.52424,-0.091999,-0.32811,-0.26619,0.1967,-0.30103,-0.073286,-0.1508,0.28595,0.75654,-0.051687,0.14145,0.23213,-0.13725,-0.48574,0.81218,0.55334,-0.031605,0.16437,-0.070175,-0.18381,0.20154,-0.29275,0.0034718,-0.04784,0.99301,0.33549,0.036706,0.10687,-0.027548,-0.58847,0.39459,-0.28177,0.35208,0.66083,-0.52858,0.48919,-0.49019,0.63023,-0.94879,-0.045795,-0.25616,-0.49883,0.30679,0.54271,0.74937,-0.52995,0.82576,-0.02621,0.023872,-0.19135,-0.5532,-0.074055,1.1785,0.10889,-0.75057,-0.38508,-0.17731,-0.41093,0.33435,-0.10774,0.32183,0.65163,0.055418,0.0011085,0.1869,0.0014771,0.23605,-1.1642,-0.25942,0.46164,-0.36859,0.32021,0.020361,0.17977,-0.41094,13
niconico,0.30741,-0.18778,-0.15509,0.34651,-1.0401,0.84552,-0.39985,-0.095431,0.17924,-1.6957,0.67156,-0.032734,-0.31414,0.71399,-0.12046,0.80082,0.64769,-1.1025,0.61354,-0.50076,-0.17055,-0.49488,-0.10892,-0.14633,0.030539,0.66948,-0.18949,0.029971,0.07666,0.1505,1.1036,-0.15846,-0.0067108,-0.023761,-0.93635,0.10715,0.34525,-0.068243,-0.36561,0.032841,-0.47479,-0.28419,-0.45253,0.23744,-0.4674,0.092159,0.38005,-0.45653,-0.68622,0.57717,-0.29616,-0.30295,-0.057591,0.050323,-0.05451,0.23379,0.63243,-0.34328,-0.64724,0.20533,-0.83079,-0.1317,-0.10396,-0.33231,-0.13357,0.10383,0.29489,-0.915,0.13924,-0.083157,-0.35489,0.90628,-0.38945,0.22277,-0.13344,-0.6839,-0.55235,0.31629,0.3612,-0.29413,0.34859,-0.16841,0.33115,0.15525,0.11715,0.52124,0.55513,-0.41569,-0.22967,-0.59664,-0.26739,-0.10653,-0.39785,-0.22274,-0.54141,0.51815,-0.41515,0.38501,-0.12596,0.0049785,-0.47204,-0.072418,-0.02053,-0.19261,0.088746,-0.9129,-0.077922,-0.41932,-0.029238,-0.048458,-0.23295,-0.48325,-0.20526,0.32905,0.25208,0.38816,0.39052,0.035238,-0.035882,-1.0894,0.32193,-0.4279,0.76734,-0.87282,-0.040577,0.31659,0.34667,-0.19214,0.58907,0.73255,-0.38997,-0.66158,0.96948,0.057185,-0.32746,0.14812,-0.065876,-0.24669,-0.74743,0.22883,0.074888,0.38357,-0.29626,-0.14344,-0.20142,0.01633,0.37096,-0.9289,-0.62491,0.25063,0.02145,-0.009652,-0.20781,-0.16963,-0.14986,0.044293,0.7509,0.098758,0.48805,0.4567,-0.35768,-0.32081,0.37755,0.34895,0.33763,-0.18636,-0.11421,0.39843,-0.40819,-0.74574,-0.2898,-0.53057,0.71671,0.45318,-0.23065,0.40113,0.43998,1.1826,0.04909,0.46984,-0.013492,0.1863,0.41548,-0.81237,0.16236,0.046525,0.2032,0.063419,-0.58291,-0.6227,1.0378,0.2652,0.21939,-0.62888,-0.084168,-0.26403,0.77533,0.35645,0.42825,-0.9009,-0.48556,0.51893,-0.3726,-0.30117,0.39862,-0.16202,0.36099,-0.5498,0.12214,0.57473,0.43634,0.24929,0.42749,0.17792,-0.32785,0.23741,0.35896,-0.4469,0.66271,0.035487,-0.28886,0.41955,-0.060322,0.064042,-0.58653,-1.0023,-0.12998,0.3515,-0.031322,-0.36761,-0.15973,-0.19942,0.12399,0.0094186,-0.0044964,-0.34465,-0.23998,0.19793,-0.8223,-0.46308,-0.63533,0.17499,-0.22684,0.34489,-0.52834,-0.63054,-0.92256,0.40271,-0.43074,0.086085,0.75059,-0.056991,0.32239,-0.29301,-0.13738,-0.95446,-0.26205,0.61806,-0.10284,0.18942,0.41581,0.25217,-0.072444,0.0347,-0.46435,-0.078573,0.5497,0.20643,-0.071997,-0.11898,-0.53247,0.35314,0.15556,0.75317,0.41768,0.15572,0.47441,-0.57125,0.39285,0.13382,-0.19644,-0.27188,0.13693,-0.91131,-0.28905,0.20511,-0.209,0.28714,-0.15663,-0.4648,0.5002,-0.20785,0.090282,-0.19017,-0.26386,0.087486,-0.091025,0.24888,-0.15123,0.33779,13
StickWars,0.74378,-0.69985,-0.51152,0.39418,-0.6014,0.28007,-0.086819,0.017071,0.097261,-1.0864,0.30506,-0.015837,0.18995,1.0354,0.14033,-0.5403,0.45744,-1.1894,1.151,0.93769,0.6954,0.053331,0.012375,0.17442,0.13001,-0.29483,0.50931,0.59221,-0.18092,0.20452,-0.73918,-0.41816,-0.098738,-0.25017,-0.57437,-0.51841,-0.19501,0.11304,0.011504,0.83845,0.078908,-0.32071,0.22847,-0.40319,0.079357,-0.038477,0.19141,-0.58515,0.23707,0.81342,-0.23845,-0.1767,-0.45256,-0.47905,-0.13629,-0.63775,-0.13096,0.06461,0.34831,1.1098,0.87912,0.37068,0.39049,0.059983,-0.55418,-0.20551,-0.97915,-0.53074,-0.70741,-0.077105,-0.041604,0.64206,0.15882,-0.11786,0.03846,0.056819,-0.081557,0.28856,-0.29832,0.24336,-0.11161,-0.97133,-0.18823,0.29341,-0.31223,0.9394,0.77667,-0.67899,-0.78711,-0.077316,0.69447,0.52935,0.0096171,0.56798,-0.78068,0.090607,-0.12409,0.12842,-0.85196,-0.12955,1.0656,-0.93436,-0.38811,1.5202,-0.63758,-0.49553,-0.16959,-0.36628,-0.3169,-0.78162,0.085296,0.55114,-0.40008,-0.20017,0.52503,-0.50382,-1.0801,0.021029,-0.7985,0.2688,0.34909,-0.12989,-0.71799,0.12226,-0.57792,0.50755,-0.52229,0.44387,0.091926,0.37667,0.18699,-0.28215,-0.33252,0.30395,-0.71175,0.34465,0.25181,-0.28901,-0.79039,-0.50623,1.5411,0.013711,-0.84279,-0.29448,0.17762,1.0551,1.1662,0.039227,-0.23295,-0.23393,0.33609,0.018463,0.11462,-0.34316,0.18299,-0.65131,0.44075,-0.71022,0.45433,0.17799,-0.22463,-0.26913,-0.015919,0.27045,0.25919,-0.43897,0.49068,0.088541,-0.055967,-0.4949,-0.61841,0.86805,1.0359,0.16232,-0.62711,0.45008,-0.21429,-1.026,-0.22262,-0.30279,0.8221,-1.1327,-0.48272,0.86032,-0.29306,-0.80938,0.42595,-0.026698,-0.55348,-0.21284,-0.021169,-0.10211,0.83459,-1.0031,-0.11029,0.31186,-0.13441,0.37398,0.46766,-1.4128,-0.44675,0.085486,0.029665,1.7192,-0.55015,-0.30396,0.22624,0.72403,0.2742,0.17876,0.034283,0.55988,0.02223,0.85327,-0.20802,0.76594,0.36967,-0.13873,0.26993,0.20582,-0.12059,-0.34816,-0.14131,-0.18436,-0.34313,-0.24619,0.21835,-0.73742,-0.49836,0.18972,0.10775,-0.020459,-0.34436,-0.83143,-0.061516,0.75715,-0.29337,0.90944,0.79608,1.0719,-0.29188,-0.73047,0.36737,0.61588,0.74016,0.27148,-0.075673,0.60589,0.37892,0.97611,-0.80458,-0.41364,0.66606,-0.29715,-0.22017,-0.15941,-0.15124,1.0864,0.16094,-0.60254,1.024,-0.13411,0.033412,-0.45015,-0.050026,0.49068,0.62296,0.078531,-0.65165,0.42388,0.78666,-0.80837,-0.17668,-0.052668,0.74252,-0.56015,0.40468,-0.20032,0.37778,0.76776,-0.52755,-0.1373,-0.11998,0.34313,-0.20584,0.27714,-1.2884,-0.26642,-1.3588,-0.40589,0.63712,0.47687,-1.0569,-0.18018,-0.69053,-0.88379,-0.30013,0.066506,0.062978,-0.43061,0
WORMS,-0.67777,0.14188,-0.57476,0.23495,0.64357,-0.47118,-0.24261,-0.74011,0.48185,-1.8484,-0.51116,0.4153,-0.40298,0.8345,-0.11895,-0.38779,-0.0037824,-0.28439,-0.23864,-0.24515,0.53625,0.13001,-0.39894,-0.19251,-0.019997,0.32406,-0.030369,0.41078,0.087118,-0.13672,-0.49998,-0.89026,0.35155,-0.313,-0.35787,0.11612,0.45019,-0.16887,0.30778,0.97243,-0.41897,0.049177,-0.21176,-0.65045,0.40145,-0.2351,-0.11795,-0.26878,0.93904,-0.1855,0.24841,0.02074,0.096424,0.042026,0.97199,-0.28071,-0.36673,0.068448,-0.05941,0.16842,0.68612,0.6928,-0.33449,-0.17693,-0.3402,0.049603,0.21739,-0.67517,-0.23565,0.34985,0.016465,0.23751,-0.24822,-0.39837,-0.12756,-0.50235,-0.089596,0.043977,-0.19266,0.17595,-0.21307,-0.33404,0.86733,-0.68569,-0.16779,0.12224,0.45393,-1.1803,-0.39794,0.23221,-0.09821,0.59303,-0.35378,0.45327,0.22837,0.37901,-0.54055,0.26297,-0.096696,0.50114,0.040548,0.46312,0.061857,-0.41366,-0.83139,0.079677,-0.14271,-0.18244,-0.859,-0.26275,0.4403,0.38422,-0.3428,-0.034,0.04077,0.091293,-0.083711,-0.41395,-0.088799,-0.023526,0.20543,0.37012,0.41499,0.59913,0.048523,-0.34417,0.21393,0.77141,-0.47518,1.1887,0.044459,0.17463,-0.59208,-0.013731,-0.58525,0.61028,-0.21289,0.27108,0.48067,-0.5397,0.014051,0.79892,0.34923,-0.13436,0.38104,-0.55715,0.1348,0.23377,-0.15826,-0.12179,0.069143,-0.28929,-0.20449,0.0061666,-0.36543,-0.027633,-0.6883,0.23974,0.32473,0.67929,0.09015,-0.34552,0.34083,-0.36321,0.59903,0.23814,-0.29462,0.27558,-0.4129,0.47996,-0.17852,0.2082,-0.8405,0.38718,0.86497,-0.32154,0.29963,0.28548,-0.16649,-0.053927,0.10001,-0.19056,0.075,0.53198,0.31898,-0.29801,-0.20262,-0.45131,0.19859,-0.094828,0.34529,0.023604,-0.31838,0.18374,-0.9472,0.79426,0.62919,0.88925,0.056167,-0.26405,-0.15413,0.24583,0.47119,-0.38908,0.28298,-0.22189,0.84039,0.55006,0.69239,0.06378,0.10225,0.27492,-0.19111,0.45773,-0.67668,-0.16799,0.51978,-1.5435,-0.13838,0.11091,0.10641,-0.38764,0.32929,-0.77487,-0.12197,-0.78087,0.033691,0.3859,-0.13711,0.28,-0.46567,0.22377,-0.17623,-0.55583,0.57107,0.60055,0.4282,0.82822,-0.66349,0.17534,-0.40691,-0.22532,-0.41857,-0.91208,-0.3277,0.44376,0.22749,0.69644,-0.19901,0.24764,0.41086,-0.10091,-0.28341,0.19833,0.13573,-0.77264,0.31858,-0.083474,0.99763,-0.058607,-0.030413,-0.52617,-0.45797,0.5861,0.64081,0.35874,-0.13997,-0.83578,-0.16313,-0.25542,-0.39315,-0.17431,-0.018168,-0.4158,0.079825,-0.32818,0.0091922,1.0483,0.18446,-0.53443,0.22901,-0.22955,-0.20501,-0.4329,0.20799,-0.17869,-0.28131,-0.35735,0.24804,0.22557,-0.063291,-0.76664,-0.49396,-0.96908,0.17899,0.18554,0.37462,-0.0808,-0.025026,-0.53108,0
Dropbox,0.30749,0.055202,-0.34194,0.40249,-0.76688,0.024704,0.39045,-0.68757,0.12655,-0.38125,0.41629,-0.047206,0.91981,-0.039877,-0.59906,0.91331,-0.10468,0.20412,0.073131,0.13124,-0.87903,0.71934,-0.42066,-0.31124,-0.48277,0.50594,0.3369,-0.23592,0.66141,-0.34326,0.22959,0.24699,0.6177,0.6408,-0.3295,0.25259,-0.079757,-0.12468,0.21808,-0.69222,-0.28009,0.26545,0.31646,0.47921,-0.25277,0.34052,-0.12624,0.26433,-0.032339,-0.10922,0.15228,-0.10687,-0.45141,-0.37733,0.09174,-0.095717,-0.14285,-0.5753,-0.39541,0.039406,0.62783,-0.31936,-0.23268,-0.036521,-0.15409,-0.25429,-0.31688,0.038362,0.04668,0.48642,-0.12627,-0.041941,0.1864,0.18878,0.067382,-0.47199,0.53835,-0.11364,-0.3713,0.90034,-0.12113,-0.080327,0.62323,0.046059,-0.41711,0.47876,-0.25943,-0.32084,0.73392,0.016843,-0.059799,-0.71902,-0.23325,0.57924,-0.3328,0.8564,0.21845,-0.14392,-0.52823,-0.46535,0.02943,0.24781,0.3371,-0.50295,-0.023715,-0.25631,0.25304,0.54876,0.52953,0.043707,0.35781,-0.11626,0.11227,0.19969,-0.88593,0.36266,1.0699,0.46795,-0.94688,0.34835,-0.00016218,-0.50583,0.58697,0.023796,0.1108,-0.027388,-0.3418,-0.70845,-0.37111,0.15285,-0.95118,-0.14794,0.61119,0.33506,-0.68136,-0.1083,0.17061,-0.25809,-0.25696,-0.029294,-0.017508,0.59094,-0.014751,0.35829,0.0098274,-0.28581,0.62211,0.26688,-0.59552,0.27655,0.11033,0.10585,0.43963,-0.17361,-0.21977,-0.040147,-0.2282,0.48088,0.769,-0.2744,-0.43681,0.42904,-0.36965,-0.2875,-0.64769,0.23999,-0.18565,0.40646,-0.30278,0.19538,-0.024051,0.16623,0.60542,0.018907,0.29468,0.23084,0.14534,-0.86317,-0.34376,-0.084102,0.76619,-0.25392,0.25014,0.11807,0.36136,0.34223,-0.32742,-0.37111,-0.39015,-0.51671,-0.17118,0.089952,0.19468,0.30313,0.57097,-0.075296,-0.12879,0.054647,0.67433,0.65202,0.35376,-0.42988,0.28708,-0.079114,0.44117,-0.43948,0.012651,0.18029,0.13415,-0.26474,-0.11067,-0.46502,-0.69783,-0.20976,-0.7088,0.019179,0.42332,-0.21252,-0.79896,0.12881,0.10209,0.42432,-0.7033,1.0001,0.74959,-0.44752,-0.057207,0.43241,0.089976,-1.0462,0.10308,-0.01561,0.53626,0.012391,0.045761,0.50625,0.21676,0.09943,0.14165,0.0298,0.23005,0.67629,-0.23137,-0.061003,0.70055,-0.47073,-0.53445,-0.035408,-0.44144,0.24462,0.65876,-0.35682,0.024015,0.071947,0.33986,-0.46858,-0.42356,0.21592,0.3106,-1.2972,0.79844,0.48969,-0.33055,-0.80715,0.13462,0.020258,-0.005638,-0.31696,0.60105,-0.21435,0.60471,0.031456,0.29578,-0.75216,-0.10602,-0.14027,-0.44306,-0.40102,0.4237,-0.1139,-0.56636,-0.36808,-0.0090929,0.26803,0.26594,-0.8627,-0.046346,0.32832,-0.54669,-1.0906,-0.25751,-0.1994,0.56214,0.31949,-0.0011177,0.18674,0.6022,-0.35007,0.039688,0.11752,1
Starbucks,0.1945,-0.19804,-0.042996,0.06872,0.37056,0.29329,-0.19571,0.18802,0.39604,1.6339,-0.65082,0.02389,-0.41795,-0.44569,0.12333,0.096392,-0.46615,0.1481,0.58951,0.14827,-0.31379,0.57958,0.14085,0.16217,0.36057,-0.11295,-0.07548,-0.26876,0.26989,-0.33626,0.27211,-0.042664,0.020148,-0.22357,-0.014674,0.52362,0.40872,0.3918,-0.15538,0.26314,-0.79743,-0.064997,0.23571,0.27453,-0.36147,0.34132,-0.94433,-0.0078735,-0.63719,0.17818,-0.20342,0.24928,-0.34306,0.69429,0.35029,-0.87081,-0.15051,0.0018977,0.14361,-0.16962,0.032106,-0.58914,-0.069616,0.52057,-0.022717,-0.58802,0.46564,-0.25404,-0.052238,0.13964,-0.11761,0.13723,1.0252,0.33318,0.12022,0.7115,-0.019998,0.21117,0.25697,0.37017,-0.08917,-0.71646,0.48721,-0.23102,-0.15112,0.18811,-0.19576,0.61968,-0.27682,-0.15779,0.16404,0.62078,-0.18182,0.56367,-0.30802,0.26578,-0.14563,-0.33219,0.047824,-0.47418,-0.47385,-0.22845,-0.44715,0.16246,-0.24921,0.59388,0.95726,0.24523,-0.15881,0.11064,0.3021,-0.33361,0.14022,0.39994,-0.080288,0.099812,0.18231,-0.27339,-0.26607,0.44948,0.38436,-0.25267,0.26338,0.081868,-0.087299,-0.15412,-0.36938,0.20654,-0.23265,0.3946,-0.39174,-0.2648,0.50128,0.32029,-0.43133,-0.29447,-0.38103,-0.015735,-0.91459,0.14982,-0.37463,-0.040584,0.41854,-0.01328,-0.61392,-0.12601,-0.038142,0.60832,0.081058,-0.13344,0.137,0.11132,0.22279,0.31536,0.12571,0.27746,0.15867,0.028278,0.28148,-0.080261,-0.64298,0.47825,-0.39357,0.048121,-0.44535,-0.18239,-0.384,0.30429,0.021705,0.21658,0.40483,-0.71282,-0.19339,0.045021,0.078929,0.12311,-0.027982,-0.31989,-0.15321,-0.57169,0.39166,-1.2323,-0.25215,-0.66179,0.040872,0.43161,0.27771,0.59532,0.65117,-0.072242,-0.33536,-0.50136,-0.32667,-0.044695,0.33373,-0.18233,0.068332,0.36761,-0.047174,-0.21062,0.64756,-0.16027,-0.64474,-0.03469,0.30748,-0.041121,0.067936,0.38524,0.53534,-0.38867,-0.19559,0.18701,-0.13176,0.34247,-0.31466,-0.41398,0.076759,-0.26939,-0.083369,0.7955,-0.36791,0.027172,-0.024982,0.21907,-0.008501,-0.54957,0.078854,-0.38681,-0.22874,-0.2551,-0.17391,-0.13114,0.5491,-0.35666,0.060226,-0.048378,0.63837,-0.50657,0.54757,0.15639,0.21003,-0.095827,-0.66856,0.18376,0.18855,0.19456,0.47583,0.088132,-0.20296,0.34037,-0.44942,-0.19803,-0.18907,0.38462,-0.17278,0.1923,-0.49062,0.32677,0.017572,0.14127,0.15112,0.15765,-0.46628,-0.10235,-0.072139,0.50842,0.35099,0.54424,0.11696,0.6028,-0.48931,0.27024,0.0052613,-0.098846,-0.047208,-0.061969,-0.49232,0.35457,0.81295,0.698,-0.14798,0.10449,0.45978,0.11608,-0.36588,0.10873,0.70036,0.58413,-0.36711,0.21751,-0.24168,0.71064,0.63636,-0.097789,-0.47773,0.32397,0.11574,-0.049731,-0.28588,0.92665,18
Gilt,-0.495,0.66965,-0.68283,0.25242,-0.26804,-0.19839,0.58032,-0.048713,-0.13763,-0.45169,-0.32462,-0.15685,0.37533,-0.091092,0.90993,0.21647,-0.083262,-0.39377,0.95897,-0.21959,0.05759,0.26372,-0.18176,-0.037209,-0.48324,0.19097,-0.038924,0.62561,-0.35082,-0.049309,-0.050322,0.054294,1.1857,0.17331,-0.83656,-0.00066979,0.090309,-0.31467,0.11432,-0.16716,0.031036,-0.074714,0.47015,-0.9728,0.71702,-0.1943,-0.14112,-0.34879,0.20404,0.22402,-0.19999,-0.22356,-0.17379,-0.14055,-0.55013,-0.50445,-0.58507,-0.15388,-0.56774,-0.50091,-0.10615,-0.25462,0.12148,-0.025077,-0.42043,-0.0042099,-0.11919,-0.14488,0.13534,0.88043,0.30695,0.111,0.16004,0.016334,-0.33304,0.032755,-0.022637,-0.26184,-0.79699,-0.29296,0.4224,0.097458,-0.13441,0.41981,-0.1708,0.12143,-0.34351,1.1644,0.36388,-0.1855,0.55695,0.061494,0.49311,0.16137,0.27074,0.49549,-0.58432,-0.092021,0.26768,-0.062776,0.056183,0.06505,-0.33092,0.19763,-0.36697,0.95567,-0.44854,0.49348,0.43244,0.11294,-0.26409,-0.050512,0.8889,-0.010898,-0.028977,-0.12213,-0.27527,-0.67168,0.10655,-0.58931,-0.48954,0.35253,0.17727,0.68719,0.19675,-0.12983,-0.16512,-0.48118,0.16296,-0.054958,-0.12173,0.12274,0.13392,-0.52075,-0.52005,-0.36728,-0.19045,-0.53288,-0.53108,0.34889,0.35614,-0.18891,-0.080588,-0.65388,-0.088146,-0.52217,0.4362,0.12009,-0.17621,0.48034,-0.13686,-0.20281,-0.1548,-0.021248,-0.45706,0.092344,-0.19244,-0.14318,0.14568,0.47896,-0.20254,0.037839,-0.10445,0.3957,0.62883,0.23313,0.58326,0.37928,0.23229,-0.55811,0.13944,-0.73008,0.31975,0.19113,-0.17512,-0.017603,-0.21546,0.51848,0.87784,-0.808,0.43809,0.065728,-0.16451,-0.70123,-0.38712,0.63815,0.71855,0.20993,-0.015119,-0.41562,0.30928,-0.24239,0.023447,-0.29786,0.52906,-0.32408,0.24118,-0.33862,0.070033,0.21145,-0.16133,0.031666,-0.28279,0.091613,0.7157,-0.043295,-0.38869,-0.35401,-0.034589,-0.17622,0.31282,0.33834,-0.66037,-0.62213,0.060963,0.052158,0.28905,-0.4095,0.12558,0.61364,0.049294,0.34696,-0.16029,0.32539,-0.36203,-0.18568,-0.16481,0.17029,0.36423,-0.14167,0.038066,-0.29139,0.39486,0.24745,0.16456,-0.50105,0.24917,0.2472,0.91157,-0.2597,-0.38143,0.37546,-0.059662,0.75951,0.17412,-0.33158,-0.061419,0.38795,-0.23921,0.037603,-0.13977,-0.34219,-0.25636,-0.21838,-0.54866,-0.18498,0.19677,0.30762,-0.38485,0.050986,0.61755,0.83733,-0.53527,0.84832,-0.059568,0.29046,0.02618,-0.70614,-0.3678,0.068977,0.10363,0.1654,0.53425,0.69117,-0.076033,0.1401,-0.35487,-0.22618,0.49309,0.28679,-0.3393,-0.13509,-0.16605,0.10222,0.20207,0.15553,0.35162,-0.18958,-0.25065,0.25132,-0.43073,-0.014971,0.12985,0.18529,-0.63678,0.042603,0.20035,0.071679,-0.18383,-0.27624,3
Canabalt,-0.015319,0.22682,-0.20748,0.46751,-0.072752,0.22948,0.75424,0.12737,0.33769,-1.3526,0.20476,0.33929,0.46886,0.61349,-0.29037,0.12396,0.45714,-1.6165,0.44665,0.065976,-0.30377,0.27644,0.30637,0.037333,-0.27939,0.65131,0.9372,0.46569,-0.4811,-0.033984,-0.13988,-0.35536,0.45338,0.090404,-0.32259,-0.48957,-0.74639,0.41341,0.46424,0.88281,0.013814,-0.12525,-0.29541,-0.15153,-0.29973,0.20988,-0.34676,-0.13303,-0.10669,0.12326,0.082212,-0.11787,-0.39489,0.032718,0.16493,-0.37709,-0.36873,0.035747,-0.40996,-0.29601,0.63773,-0.45623,0.54566,-0.37847,0.0070196,-0.60089,0.39845,-0.79827,0.60567,-0.51709,-0.33029,0.6061,-0.48448,0.53655,0.29306,-1.0202,0.13567,0.091428,-0.13644,0.64704,0.32376,-0.15133,0.21879,-0.57619,0.46062,0.20485,0.63507,-0.043667,-0.97965,-0.42515,0.090038,0.21969,-1.0229,0.1613,-0.70534,0.13488,-0.39743,0.00039324,-0.41829,0.36405,0.068257,0.31768,-0.030694,-0.024647,0.19303,-0.27275,-0.48468,-0.074443,0.17094,-0.69629,0.19455,0.16067,0.3517,0.47643,0.34109,0.20486,-0.4368,0.47058,-0.59389,-0.24432,0.40172,-0.64191,-0.11913,-0.32476,-0.21342,0.29001,-0.19964,-0.048917,0.076586,0.756,0.52517,-0.23508,-0.074396,0.61316,-0.88646,0.39417,0.77464,-0.75249,-0.28984,-0.27392,0.23044,0.061652,0.038932,-0.29547,-0.43596,-0.32323,0.82296,-0.91709,0.04902,-0.10102,0.58954,-0.6347,0.40279,0.071605,-0.48863,0.28898,-0.22256,0.32604,0.14935,-0.28776,-0.60544,0.18588,-0.17131,-0.34318,0.63795,-0.50051,-0.23665,-0.33049,-0.19688,0.17547,-0.13666,0.52199,1.2084,-0.58628,-0.16481,-0.19289,-0.2545,-0.26412,-0.2768,-0.18238,0.61315,-0.93083,-0.13908,-0.6372,0.19491,-0.94939,0.18587,-0.13432,-0.84164,0.3733,-0.14829,0.41234,0.84158,-0.73002,0.49553,0.54882,0.11367,-0.45234,0.72331,0.18265,-0.32561,0.67368,0.38927,0.1821,-0.48666,-0.52509,-0.208,-0.032404,0.68388,-0.014826,0.015393,-0.0061259,0.21749,-0.31669,0.016999,0.78104,0.014967,0.53646,0.26243,0.076826,-0.31655,0.5508,-0.1998,-0.55741,0.16615,0.014959,0.08407,0.34532,0.095256,-0.3713,0.10952,0.25495,0.28943,0.074525,0.029552,0.41053,-0.4579,0.7049,0.16755,0.25486,-0.33782,0.01009,-0.39271,0.45262,-0.29551,-0.18783,-0.3446,0.090062,0.5953,0.088086,0.22807,-0.39877,0.67378,0.5923,0.20495,-0.21298,-0.28905,0.41701,0.088197,-0.68013,0.031209,-0.24884,-0.40411,0.26514,-0.095894,1.0105,0.31857,-0.73718,-0.202,-0.072837,0.30234,-0.36307,0.55012,-0.31808,-0.23992,0.075416,-0.33033,-0.36058,0.0014681,0.11625,0.12497,-0.21136,-0.1999,0.13435,-0.24868,-0.5097,-0.20082,0.020884,-0.1039,-1.1884,-0.49448,-0.41664,0.06785,0.62609,-0.30072,-0.3176,0.035139,0.12817,-0.59266,-0.10275,0
Twitter,-0.047159,0.43699,-0.25953,0.56292,-0.60898,-0.27155,0.091863,-0.3937,-0.074426,1.658,-0.28408,-0.3506,-0.082389,-0.041861,-0.67049,0.93138,-0.48764,0.11646,-0.022087,0.28795,-0.22342,0.72798,-0.5554,0.29587,0.022231,0.23527,-0.14174,0.42902,-0.15318,-0.3042,0.45449,0.26134,0.18234,-0.085804,-0.25019,0.092138,-0.085598,0.038241,0.12956,-0.71835,-0.451,-0.56833,0.25795,0.55789,-0.021267,0.22951,-0.57046,0.89389,0.0484,-0.039478,-0.17517,0.2366,-0.075259,-0.64028,-0.45072,-0.55718,0.24714,0.4529,0.41644,0.062207,0.030877,0.5894,-0.097006,0.26109,0.29345,0.15932,-0.16915,-0.42628,0.043035,0.48795,0.040965,-0.27105,0.33968,-0.50334,0.004263,-0.2943,0.71476,-0.018539,0.3475,0.83626,0.44723,-0.16293,-0.68982,-0.072197,0.53953,0.39112,-0.78099,-0.37128,0.69326,-0.0017488,0.34763,-0.54917,-0.35474,0.30465,-0.11059,0.57484,-0.83406,0.31039,0.40652,-0.36174,-0.13367,-0.20297,-0.037977,-0.48616,0.35174,1.1498,0.086182,-0.1691,0.30514,0.51155,-0.24791,-0.96205,0.72479,0.23579,-0.55482,-0.2302,0.072383,-0.54775,-0.4164,0.57309,-0.34211,-0.22103,0.29583,-0.76206,0.29748,0.048918,-0.41157,0.17535,-0.24429,0.15527,-0.47219,-0.62088,0.31218,0.047941,-0.45908,-0.45292,-0.08735,-0.15294,-0.36929,-0.15129,-1.0372,-0.10568,0.033969,0.33241,-0.38831,-0.51783,0.24854,-0.1858,-0.34449,0.32544,0.70828,0.13594,0.30735,0.12009,-0.32462,0.12669,0.02819,0.16568,0.33947,-0.43673,0.11123,0.057734,-0.22122,0.043025,-0.19219,-0.034509,0.15294,0.31462,0.0086969,-0.023305,-0.0036314,-0.16287,0.49315,0.19098,0.20991,0.39586,0.61492,-0.21358,0.25527,-0.31753,0.046621,-0.079301,0.23465,-0.36128,0.49784,0.51496,-0.04811,-0.26478,0.022375,-0.5016,0.49961,-0.41094,-0.12074,0.4213,0.34939,0.33107,-0.025344,-0.051575,0.27709,0.49588,-0.28856,-0.46208,0.28697,0.0029431,-0.053949,-0.03754,0.15629,-0.07265,-0.43728,-0.66269,-0.62512,-0.62046,-0.34185,0.60328,-0.3397,0.38553,0.26186,-0.32907,-1.0864,0.065654,0.29525,0.65741,-0.67453,0.60865,-0.33703,-0.076517,-0.31587,-0.33683,0.20643,-0.26819,-0.037485,0.4979,-0.15859,-0.25705,0.32896,0.025128,-0.19152,0.050512,0.2227,0.19788,0.052253,-0.20238,-0.15124,-0.23943,0.24213,0.09252,0.22948,0.28948,-0.27856,0.047179,-0.045192,-0.55259,-0.47285,-0.42974,-0.096849,-0.38396,-0.62616,0.20643,0.086044,-0.62195,0.46524,0.38565,-0.068108,-0.26615,0.055923,-0.090513,0.16792,-0.059822,1.1046,-0.089303,-0.27585,-0.054173,-0.10594,-0.26373,-0.029938,-0.63519,-0.22932,-0.16844,0.5817,0.32627,-0.41982,0.5026,0.20624,-0.1421,-0.083956,-0.29765,0.25522,0.19821,0.15677,-0.0045362,-0.25911,-0.19463,0.69667,0.31873,0.18312,-0.47922,-0.23816,-0.67499,-0.49032,0.6204,19
WolframAlpha,0.064947,0.032936,-0.24243,-0.1696,-0.12338,0.55291,0.028502,0.31629,-0.10843,-1.4567,0.16534,0.23122,0.030464,0.1039,-0.36235,0.29419,-0.16055,-1.1867,-0.3081,-0.75683,-0.032256,0.2002,-0.67338,0.1121,-0.010789,0.82662,0.44061,0.16232,0.051015,-0.042147,0.40196,-0.11021,0.043277,0.14114,0.43861,-0.27754,0.37173,0.3433,-0.40591,-0.01634,0.35146,-0.46356,0.029554,0.054211,0.39693,0.49552,0.20848,-0.31418,0.052532,0.2105,-0.0071219,0.11797,-0.20421,-0.12081,-0.17309,-0.86171,-0.028148,-0.46628,-0.30573,-0.061141,0.19207,-0.11778,0.13288,-0.51036,0.083387,-0.18194,-0.63368,0.42325,0.55201,-0.086246,-0.87637,0.1601,0.296,-0.2358,0.14882,-0.25153,-0.046248,0.238,-0.48134,0.84609,-0.63377,-0.27978,-0.10857,0.26805,0.61189,0.49454,0.031643,-0.77572,-0.39356,-0.027079,0.70531,-0.24648,-0.66603,0.29926,0.13044,0.97284,-0.7434,0.26463,0.504,0.080399,-0.07286,0.063225,0.42185,-0.12845,-0.024471,-0.78873,0.39682,0.058057,0.073215,0.28372,-0.42985,-0.35575,-0.24339,0.50433,0.36756,0.60266,0.33608,0.45525,0.095719,-0.5088,-0.081928,-0.31661,0.027484,-0.51752,-0.18327,0.52489,0.21282,0.091037,0.45891,0.040065,-0.047556,-0.28822,0.4628,-0.23307,-0.31143,-0.63569,0.57097,-0.30864,-0.27476,-0.42614,0.6794,0.5211,-0.18551,0.44295,0.15774,-0.66129,0.087039,0.71067,0.11446,0.47131,0.06163,-0.4868,0.3713,0.33736,0.28504,-0.036318,-0.056345,-0.34047,0.17783,-0.36308,-0.14065,0.20325,-0.33781,-0.301,0.34449,-0.032597,-0.26763,0.57119,0.36459,0.36243,-0.21883,0.0087597,1.0163,-0.4957,0.21736,0.31618,0.34518,-0.23446,-0.33185,-0.24689,-0.046598,-0.10438,0.059297,0.37868,0.42103,-0.059528,0.37232,-0.22166,-0.87586,-0.68392,-0.52219,0.13487,-0.024466,0.67715,-0.29683,0.13192,0.30139,0.14725,0.2051,0.045723,-0.25328,0.13682,0.41971,0.099241,-0.072308,-0.52716,-0.05828,-0.031522,0.70216,-0.021841,-0.43438,-0.56124,-0.57821,0.18887,-0.17746,0.33045,0.65977,-0.094988,0.055389,0.49795,0.50177,0.57045,0.22035,0.16176,0.37492,0.27038,-0.5343,-0.51354,-0.081545,-0.46247,0.47896,-0.007932,0.17396,-0.76492,-0.2118,0.31523,0.0058074,-0.068851,0.25644,0.13798,0.52194,-0.15833,-0.75404,0.064682,0.24071,-0.59824,0.1908,-0.071099,0.36899,0.72438,0.075575,-0.88638,0.12293,-0.35749,0.38372,-0.52218,-0.12606,0.029578,0.38029,-0.58052,-0.01121,-0.1935,-0.13075,0.44492,0.14976,0.42153,-0.01093,0.51178,-0.21229,0.046158,0.24563,0.41952,0.0069568,-0.48601,-0.1159,-0.79855,-0.22851,-0.65153,0.35996,-0.51185,-0.26548,0.78439,0.21098,0.014288,-0.6479,-0.28798,-0.15047,-0.30098,-0.47187,0.1185,0.2892,0.033122,0.093542,0.27735,-0.31574,-1.119,0.30477,0.52506,0.52624,0.2969,4
Catan,0.18569,-0.43611,-0.39214,-0.49814,0.33354,-0.10813,0.15952,0.51481,-0.44056,-0.40061,-0.21693,0.1084,0.089689,0.38742,0.051266,-0.039973,0.057907,-1.4764,0.54451,0.18633,-0.39015,0.51782,0.27948,-0.23935,0.31649,0.19841,0.4413,0.31502,0.10783,0.14278,0.086884,0.47994,-0.18621,0.0022877,0.14914,-0.038183,-0.15131,0.35381,-0.038289,0.13845,-0.070264,-0.1312,0.2295,-0.98094,-0.16424,-0.35101,-0.87838,-0.33903,0.034826,0.13836,-0.086753,0.18711,0.32522,0.24123,0.23448,-0.11082,0.093493,-0.35865,-0.24999,0.87386,0.95288,0.74639,0.41575,0.14902,0.10471,-0.17959,0.24232,0.035902,0.045837,-0.089036,0.37334,-0.067526,0.27075,-0.43062,0.5062,-0.17469,-0.13202,0.8374,0.22146,-0.006551,-0.13844,-0.49656,0.84829,0.083595,0.43515,0.49772,-0.8839,-0.2583,-0.38762,-0.42805,0.42856,-0.34813,-0.60777,0.044425,0.32689,0.070242,-0.95112,-0.25317,0.29719,0.79633,0.27491,-0.68113,-0.83338,0.78188,-0.0080404,0.038058,0.010192,0.092365,0.64095,-0.36571,1.0417,-0.29162,-0.41564,0.001826,0.25703,-0.62617,-0.20645,0.64626,-0.48442,-0.10041,0.40367,-0.44311,0.55746,0.23188,-0.10477,-0.013399,0.13548,0.32541,0.093733,0.34046,0.18138,0.015594,-0.77831,-0.13281,-0.64485,-0.25942,0.73008,-0.073247,-0.35917,-0.76517,0.20464,-0.12418,-0.24294,-0.46536,0.022523,0.24147,-0.11448,0.25622,-0.42623,0.00476,0.80782,0.34123,-0.56851,0.33859,-0.084554,-0.66173,0.41769,-0.050883,0.33217,0.22717,-0.034583,0.77641,0.061862,-0.25905,-0.20655,-0.44767,1.04,0.10786,0.45692,-0.022862,-0.19212,0.48436,-0.46765,0.40658,0.1815,0.023064,-0.0074995,-0.087474,0.15466,-0.59819,0.17802,-0.28073,-0.41489,0.25291,0.018985,-0.37147,-0.64299,-0.38963,-0.59924,0.94633,-0.28028,0.11757,-0.12983,0.11969,0.20656,0.60036,-0.068176,1.1193,-0.38445,0.22022,-0.23914,-0.083964,0.0091968,0.20169,0.033007,-0.28465,-0.7198,0.35373,-0.77428,0.094404,-0.11469,-0.36673,-0.18468,-0.20813,0.13328,0.76845,0.2305,0.023952,-0.16574,-0.32792,-0.27273,-0.2877,0.23898,-0.89808,-0.37573,-0.57088,0.34651,0.49021,-0.24308,-0.51194,-0.36226,0.13063,-0.27105,-0.018182,0.41645,0.040364,-0.48805,0.42689,-0.3172,0.37595,0.88456,0.80296,-0.64364,0.057171,-0.26759,-0.12695,-0.19974,0.20646,-0.038772,-0.65515,0.10377,-0.27119,0.42318,0.052098,0.24664,-0.46315,0.32334,0.10949,-0.22104,-0.038129,0.57147,0.63501,-0.30353,0.15283,-0.16934,0.35801,-0.084201,-0.052041,-0.49109,0.2157,0.065027,0.16658,-0.19082,0.73582,-0.84052,0.0032222,-0.51368,-0.1169,-0.41509,-0.21241,-0.15902,-0.22913,0.22101,-0.5312,-0.11355,-0.51713,0.25313,-0.48241,-0.35237,-0.065197,-0.28445,0.29231,-0.61678,-0.4094,0.48049,0.72017,0.0084534,-1.3064,-0.40638,0.028218,0
Stylebook,0.41396,0.026388,0.49693,0.22845,0.31672,0.26277,-0.12814,0.081808,-0.59685,-1.2959,-0.56337,-0.65997,-0.099977,-0.32395,0.065325,0.11855,-0.34429,-1.0585,1.0475,-0.26458,0.032837,0.47381,0.35713,0.2037,-0.15596,0.037622,-0.75332,-0.58966,0.1277,0.34096,-0.081728,0.52313,-0.22241,0.057647,-0.70177,-0.0011801,0.0028087,-0.26037,0.50763,0.03492,0.048981,-0.21801,-0.16596,-0.67284,-0.5642,0.051547,0.29639,0.34576,0.37569,0.67596,-1.7237,-0.3414,-0.091029,1.0315,-0.32662,-0.59479,-0.30005,0.34365,-0.12613,-0.17001,-0.62454,0.26719,-0.087401,0.22356,-0.1055,-0.14281,-0.88556,0.20635,-0.026912,0.28595,-0.50422,-0.60578,0.23402,0.58468,0.12672,-0.095164,0.27009,0.17217,-0.094409,0.12589,-0.01015,-0.46705,0.080081,0.18343,-0.16226,0.19568,-0.5355,-0.71418,0.34989,0.63223,0.053622,-0.55645,-0.064686,-0.07991,0.51634,0.15262,0.094251,-0.43953,-0.021111,-0.25153,-0.13666,-0.44992,-0.20768,0.57257,0.40808,-0.53406,-0.4831,0.77824,-0.017121,-0.098927,-0.53234,0.097792,0.20795,0.37794,-0.357,-0.056291,0.58428,-0.072541,-0.45635,-0.59008,-1.0192,0.56234,-0.18987,0.14777,0.029842,-0.2311,-0.2823,0.23757,0.13227,0.17574,-0.98803,-0.06547,0.015393,0.85527,-0.84422,-0.57457,0.72736,0.095204,-0.14194,-0.13922,1.1513,-0.25038,0.051426,-0.18784,0.46946,0.045994,0.043552,-0.41263,-0.75506,1.752,0.5711,0.35607,0.75485,-0.019962,0.63957,0.029473,0.2964,-1.2228,0.15215,-0.36036,0.33373,-0.2192,-0.48639,-0.29244,-0.0073542,0.0019335,0.48624,0.10979,0.14837,-0.67326,-0.08028,-0.52579,1.2981,-0.21456,-0.13493,-0.66893,0.37988,-0.24444,-0.39595,0.4928,-0.0054093,-0.60613,-0.74434,-0.97432,0.94575,0.41899,0.056528,-0.1535,0.28828,-0.73003,-0.30082,-0.013887,0.010419,0.1876,0.35984,0.74766,-0.22217,0.61553,0.20328,-0.11255,-0.44271,-0.19272,0.36549,-0.72641,-0.45404,-0.117,0.48476,0.42988,-0.73436,-0.5694,0.49961,0.073569,0.57963,0.076609,-0.046684,-0.064265,-1.1841,-0.24894,-0.063609,0.39163,-0.25184,-0.077005,0.093267,-0.95394,-0.021502,0.08208,-0.59111,0.22058,-0.41789,-0.19247,0.38618,0.81395,-0.17347,0.25849,0.10689,-0.1884,0.51801,0.16762,0.32549,0.44117,-0.14683,0.15175,-0.098535,-0.33202,-0.50196,0.19837,-0.49552,-0.39009,0.42506,-0.24397,-0.39893,-0.44145,-0.52715,-0.60583,-0.38177,-0.3504,0.20447,0.51459,0.27603,0.040767,-0.58363,0.62059,-0.39464,-0.22222,0.37865,0.78387,0.10308,-0.13512,-0.42894,0.34696,-0.059294,0.040781,-0.77574,0.1322,-0.02992,-0.57546,-0.9285,0.095405,0.23006,0.41542,0.36822,0.46463,0.20007,-0.65055,-0.44722,-0.50296,-0.14006,0.029501,-0.25113,0.36535,-0.022982,-0.41029,-0.28343,0.41145,-0.15107,-0.7269,-0.91106,-0.26386,0.6041,-0.06527,17
NBA,-0.017217,0.22713,0.50444,0.22443,0.8318,-0.44424,0.46622,0.19898,0.89273,1.3525,-0.57508,0.045008,0.13796,0.32305,0.68275,0.2314,0.18549,-0.18456,0.46797,0.029229,-0.45585,-0.25568,0.40564,-0.15544,-0.35434,0.608,-0.25219,0.20069,-0.11551,-0.73104,-0.07245,0.26856,-0.58547,0.0022216,-0.40396,-0.23945,0.35422,-0.57472,0.11186,0.27032,-0.71438,0.28157,0.2759,0.1014,-0.48463,-0.87107,-0.33381,1.2831,-0.56663,0.202,0.14642,0.1156,-0.27251,-0.54339,-0.59185,-0.6558,0.27621,0.73136,0.17304,0.6815,0.33575,0.25656,-0.321,-0.27745,0.14256,0.67788,0.25726,-0.35642,-0.023371,0.3527,0.35092,-0.18511,0.45442,0.54706,-0.52793,0.1952,0.40884,0.42833,0.064098,0.73538,0.29575,0.19015,-1.196,0.25047,0.11235,-0.1348,-0.93445,-0.274,0.29502,-0.34311,0.22342,-0.45742,-0.60265,0.32408,0.019193,-1.0675,-0.19143,-0.16905,0.0072828,0.59263,-0.28753,0.039692,0.0030091,0.15948,0.030441,0.96604,0.65083,-0.62368,0.2071,-0.089013,-0.037244,0.2777,0.27776,-0.003369,-0.91569,0.33273,-0.68137,0.010246,0.33206,-0.48482,0.21768,0.43235,0.10219,-0.076672,0.40741,-0.23247,-0.20524,0.55912,0.59008,-0.53711,0.19779,-0.074242,0.50544,-0.4532,-0.10488,-0.17492,-0.11322,-0.19786,-0.07481,-0.25843,-1.475,0.28821,0.46774,0.54061,-0.49396,-0.15289,1.2406,-0.2034,0.98157,0.029067,0.020536,0.16999,-0.53159,0.28132,-0.18342,0.12577,0.20214,0.52036,0.43998,-0.15682,0.38778,-0.30175,-0.35948,-0.90037,-0.80951,0.12778,0.76076,0.49871,0.20916,0.0903,-0.28661,0.42724,-0.05242,0.59571,0.26525,0.47111,0.30785,0.47036,0.072451,-0.50584,-0.63082,0.29269,-0.22688,-0.36159,-0.31296,0.46725,-0.17723,-0.013942,0.73907,0.076764,0.33728,-0.32121,-0.18103,-0.057198,0.0091473,0.5728,0.01318,0.86231,-0.58227,0.29336,0.64133,-0.35517,-0.35483,-0.3215,-0.8324,-0.22402,0.035131,-0.30268,-0.52846,0.48638,0.28398,-0.10426,0.31421,0.94767,0.27656,0.61562,0.072226,-0.44761,-0.65951,-0.027804,-0.37421,-0.10432,-0.52599,-0.15647,-0.45978,0.059746,0.028959,1.1193,0.26942,0.42149,0.029983,0.27966,0.4009,1.1957,-0.73366,-0.18763,-0.22517,-0.11284,0.10408,0.64224,0.11023,-0.65862,-0.098933,0.3427,-1.2988,0.30203,0.11748,-0.33565,-0.4614,0.38249,-0.41418,0.24804,-0.089988,-0.4004,-0.39068,-0.19483,-0.2614,-0.08497,0.31327,-0.38469,0.3049,0.40061,0.22866,0.38759,-0.26843,0.59823,-0.24093,-0.09826,0.010594,0.19498,0.47382,0.62932,0.20886,-0.60094,-0.33412,-0.35727,-0.28082,0.32753,-0.39507,0.26648,-0.10092,-0.044793,-1.1843,0.29921,-0.86224,-0.22718,-0.60063,0.083897,0.22892,0.061584,0.10312,-0.29148,-0.34969,-0.60792,0.44639,-0.45828,-0.82651,-0.065691,0.27904,0.27679,10
Blower,0.068885,0.57825,0.12377,-0.5216,-0.076604,-0.27914,0.41586,-0.62794,0.060019,-1.5921,0.50675,-0.26883,-0.35217,-0.41362,-0.63558,-0.005499,-0.3306,0.025355,-0.68198,0.58661,0.47733,-0.38341,-0.070687,0.39555,0.094529,0.22836,-0.16482,-0.015967,-0.13295,0.030148,-0.51225,-0.1622,-0.48478,0.065997,0.38671,-0.12765,-0.41167,0.16488,-0.18379,-0.70468,-0.19712,0.05002,0.061908,0.02992,0.25259,0.5972,0.27562,-0.15193,-0.39344,0.78015,-0.14528,0.94805,-0.25478,0.18236,-0.33592,0.048866,0.33354,-0.29086,0.03036,-0.21142,-0.24019,0.29775,-0.19047,0.13309,0.4227,-0.44248,-0.11394,0.036298,0.81481,-0.13748,-0.0075969,0.027656,-0.77274,0.66202,0.043568,0.12174,-0.66562,0.53997,0.70757,0.094606,-0.18075,-0.15013,-0.58633,-0.13841,0.17182,-0.23982,-0.2564,0.73834,0.17744,0.9392,-0.033199,-0.11379,-0.23175,0.029813,0.29849,-0.87888,-0.65372,0.2247,0.24318,-0.10495,-0.065029,0.45176,0.20186,-0.91991,0.097026,1.0942,-0.27662,-0.48998,-0.43159,-0.44302,0.7341,-0.26747,0.27038,-0.052257,-0.44984,0.19465,-0.091819,0.047554,-0.081835,-0.21209,-0.1646,-0.049748,0.33701,-0.39158,-0.34497,0.015866,-0.40179,-0.34512,0.22089,-0.049163,-0.10957,0.54872,-0.061229,-0.054197,-0.19143,0.072423,-0.2053,0.14032,0.039595,0.42583,0.72927,0.27167,-0.046509,0.15037,0.12593,-0.75567,-0.78744,-0.1665,-0.2048,0.39523,-0.37463,-0.44079,0.31987,0.60157,0.9957,0.63465,0.35156,0.16453,-0.24993,-0.40805,-0.06749,0.081745,-0.20877,-0.5091,0.5418,-0.15891,-0.1078,-0.15769,0.67761,-0.46761,-0.21186,-0.15248,0.2494,-0.17215,-0.087041,-0.22159,0.14915,0.21645,0.60232,-0.18853,0.25432,0.22403,-0.057835,-0.92952,-0.42684,-0.049558,-0.61926,0.012766,0.25794,0.16437,-0.51972,0.04275,-0.02152,0.28675,-0.6339,0.27018,0.35451,-0.45084,-0.09589,-0.24875,-0.28911,-0.8154,0.34465,0.072099,-0.11536,0.35841,0.0985,0.039627,0.27523,0.042764,0.15069,0.13296,0.23991,0.22601,0.46318,0.091476,0.47854,0.074083,-0.50321,-0.32184,-0.14621,-0.14841,0.7339,-0.21697,0.30835,-0.0844,-0.38151,-0.24294,-0.56477,0.33455,-0.13604,-0.065928,-0.17985,0.21448,-0.60988,0.42894,0.1706,0.21693,-0.066798,0.10572,-0.093099,-0.06481,0.54761,0.0090304,0.09762,0.43097,0.074518,0.6299,-0.265,0.2273,0.023758,-0.29797,0.39068,-0.066179,-0.28545,0.71881,-0.6082,-0.87871,0.42522,-0.071221,0.097557,-0.53803,0.44419,-0.25458,0.15027,0.097549,0.081231,0.27886,-0.098684,0.45099,1.5583,-0.34792,-0.34342,-0.38741,0.57078,0.35811,0.38241,0.11174,-0.086119,-0.44937,-0.0062656,0.10486,0.041188,1.0838,-0.25925,0.56643,0.057116,0.04089,-0.13828,-0.16673,-0.42392,-0.0014638,0.52928,0.33509,0.038556,-0.29904,0.29183,0.25226,-0.0048375,0.059769,13
Redbox,0.46043,-0.22879,0.22632,-0.35934,0.47373,-0.2666,0.029197,-0.5946,0.59788,-0.073048,-0.17668,0.014021,0.28616,-0.292,-0.16418,0.2546,0.03753,-0.58872,0.32878,0.096928,-0.58193,0.35542,0.2006,0.21647,-0.14421,0.70827,-0.58223,-0.49105,0.11299,-0.31667,0.51246,-0.46466,0.54679,0.25568,0.05611,0.80405,-0.3115,0.78548,0.081614,0.50291,-0.16667,0.41038,0.3246,-0.26168,0.35245,0.56426,-0.46152,0.32112,0.042635,-0.31617,0.53506,-0.22906,-0.44146,0.37382,0.45967,-0.69362,-0.28607,0.024811,-0.2258,0.36148,0.15762,-0.16727,0.42451,0.41902,0.74778,0.23097,0.027903,-0.33482,-0.2138,0.19062,0.017817,0.091871,0.062827,-0.10823,-0.15873,0.055362,0.38737,0.16721,-0.15556,0.99769,0.024592,0.0026849,0.44119,-0.37722,0.21419,0.83381,0.0085031,-0.30281,0.36217,-0.54095,-0.063928,0.31149,-0.022293,0.56471,-0.43533,0.66383,-0.33411,0.15584,-0.065626,0.26163,0.13504,-0.13776,-0.5689,0.6289,-0.3009,0.043871,0.25371,0.22802,-0.47327,0.30961,0.50698,-0.37093,0.54626,0.12851,-0.1373,0.0054909,0.98004,0.61404,-0.30989,0.64954,-0.14984,-0.64724,-0.19597,0.28397,-0.85491,-0.017776,-0.33212,-0.03557,-0.73021,0.53026,-0.69099,-0.43663,0.8296,-0.26817,-0.19764,0.18491,-0.18729,-0.040087,-0.37648,0.040123,0.31787,-0.18916,-0.31974,-0.46428,-0.75241,0.077695,0.098483,0.38719,0.38531,0.15379,-0.14374,-0.35731,0.53035,-0.066317,-0.70911,0.1635,0.70272,0.39305,0.085026,-0.050006,-0.29055,0.32135,-0.32563,-0.18615,-0.10553,0.37604,-0.28817,0.90733,0.41796,0.16444,-0.46428,-0.2117,-0.086055,0.25292,0.57761,-0.12005,0.59498,-0.24853,-0.098153,-0.31747,0.33221,-0.32034,-0.16973,-0.038487,0.097026,-0.18935,0.31756,-0.12326,0.19037,-0.18804,-0.20429,-0.52964,-0.13086,0.028526,0.36724,0.121,-0.17922,0.73951,0.54652,-0.25094,0.45602,-0.41269,-0.30436,-0.4169,0.2164,-0.025912,-1.0337,0.05127,0.80973,-0.23459,0.060376,-0.36626,0.7131,-0.12791,-0.3737,-0.28646,-0.065462,0.19672,0.2371,0.022857,0.091238,0.027413,0.19312,-0.13899,-0.35903,-0.35931,0.12576,-0.54148,0.26516,-0.92852,0.097165,0.21005,0.39191,0.49004,0.17934,-0.24172,-0.11659,-0.40969,-0.0036306,0.70478,0.81971,0.029209,0.2562,0.60823,0.21603,0.13021,-0.28342,0.19186,0.090597,0.29786,0.55143,0.31387,0.39105,-0.19828,-0.5139,0.10449,-0.31112,0.56923,-0.43601,-0.25903,0.079699,-0.021337,-0.86756,-0.21708,-0.021654,0.53467,0.46445,0.045767,0.39927,0.036848,-0.21442,0.1422,0.28545,-0.071093,-0.34914,-0.25561,-1.4001,0.27377,0.31504,0.25811,-0.20567,0.36362,0.41035,0.63281,-0.21577,0.13263,-0.053467,-0.19909,-0.39335,-0.29791,-0.13789,-0.24644,0.47022,0.19904,-0.32755,-0.016646,-0.20097,0.073171,0.24376,0.83444,13
Trenches,0.1404,0.50548,0.063695,0.2337,-0.18917,-0.38936,-0.12714,0.15813,-0.031936,-0.61546,-0.21933,-0.59242,0.42541,0.30879,0.48415,0.34572,0.34028,-0.77308,-0.39003,0.010979,0.41932,-0.25518,-0.15733,0.057411,-0.12541,0.042317,0.079554,0.33257,-0.51173,0.059258,-0.2638,-0.27643,-0.47184,0.31477,-0.003249,-0.19344,-0.0076259,-0.0843,0.22031,0.12261,0.033047,0.77267,-0.42047,-0.41444,-0.023952,0.26489,-0.028595,-0.030406,0.11237,0.27308,0.56189,0.23374,-0.91914,0.15501,0.17519,0.24056,0.45916,-0.28488,0.3449,0.10087,-0.17342,-0.12597,0.38689,-0.0013662,-0.015655,0.42316,0.30028,-0.04927,-0.32097,0.075377,-0.3205,-0.25204,0.11373,0.50048,0.28373,0.10164,0.081232,-0.073184,0.051448,0.3193,0.22609,-0.25343,0.24699,0.18945,0.12043,0.10246,-0.39028,-0.53538,-0.23946,0.41875,0.0037525,-0.14655,0.055348,0.14651,0.027104,0.91863,0.19339,0.058548,0.29807,-0.69402,0.6495,-0.2949,-0.2508,-0.062574,0.09015,0.84949,-0.33056,0.40517,-0.1357,-0.38089,-0.50992,-0.27542,0.38949,0.069718,-0.34572,-0.17137,-0.11733,-0.16262,-0.47344,-0.17521,0.76647,-0.54893,-0.22498,0.13268,-0.021811,-0.12556,-0.0070292,0.27243,-0.3403,-0.19502,0.047204,-0.13839,0.35981,0.72482,0.013875,0.50477,0.11619,0.092152,0.24332,-0.48231,0.5979,-0.081161,-0.5238,-0.72691,-0.54425,0.50186,-0.047668,0.93052,0.30415,0.31179,0.30753,-0.42181,-0.30714,0.21904,-0.36565,0.030351,0.015785,0.61046,0.23039,-0.22276,0.67372,0.074327,0.22309,0.28787,-0.06712,0.34385,0.19589,0.14007,-0.13899,0.14194,0.22441,-0.2107,0.11642,0.18888,0.37621,0.13313,-0.43973,0.27347,0.33732,-0.69945,-0.38907,-0.42641,-0.29384,0.066531,-0.044438,-0.20958,-0.05482,-0.11319,-0.054998,-0.14699,-0.14671,-0.10047,0.30795,0.067018,-0.41026,0.32567,0.00062397,0.16605,0.052472,0.29832,0.16804,-0.10181,0.34557,-0.1601,-0.2763,-0.4846,0.40378,-0.11344,-0.090644,-0.32019,0.41922,0.066404,-0.32476,-0.43945,-0.32072,-0.36482,0.019677,-0.066735,-0.29712,-0.35213,-0.61176,0.1323,0.52813,0.33477,0.18449,-0.83679,0.16977,0.11377,-0.14928,0.28577,-0.33719,0.023214,0.25073,-0.044887,0.31082,-0.32416,0.17016,0.067808,0.52412,-0.58972,0.077232,-0.63758,-0.61668,-0.12477,-0.11441,-0.18672,-0.41138,-0.61686,0.30745,-0.095061,0.30435,-0.54213,0.20444,-0.2244,0.4213,-0.94931,0.49166,-0.22993,-0.25842,-0.045742,0.21059,-0.042935,-0.24344,-0.51204,-0.091386,-0.14941,1.0909,0.26351,-0.12107,0.20571,0.19288,0.06535,0.079922,-0.21193,-0.15051,-0.17985,-0.56962,-0.54531,0.26266,0.22031,0.30789,0.10446,-1.0553,-0.48108,0.38861,-0.16626,-0.27169,-0.0862,-0.082067,-0.34754,-0.11191,-0.13803,-0.32423,-0.27496,0.10303,-0.087418,0.3792,0.14195,0.12282,-0.615,0
Hipstamatic,0.63723,-0.21158,0.45522,0.29108,-0.28128,0.13039,-1.0526,0.64336,-0.58037,-1.223,-0.41552,0.41654,0.2098,0.079878,0.13529,0.30836,-0.56002,-0.81692,-0.023122,0.041177,0.17136,0.18779,-0.2093,0.24245,-0.36081,0.83597,0.54604,-0.88978,0.57039,0.52724,0.43129,-0.25706,0.13201,0.65214,-0.49152,-0.34099,-0.27645,-0.35713,0.65835,-0.5464,-0.19893,-0.26477,0.01288,-0.7857,-0.50741,-0.073066,-0.41337,0.24457,-0.16211,-0.38176,-0.031876,0.13094,-0.1012,-0.031361,-0.066621,-0.15361,0.17089,-0.52737,-0.26438,-0.11291,-0.61047,-0.2446,0.21383,0.46025,-0.071007,-1.0628,-0.43943,0.050343,-0.1142,-0.29178,-0.49463,0.026773,0.072857,0.77043,0.49775,-0.61195,0.40214,-0.26466,0.16616,0.3831,0.28995,0.13186,-0.55041,0.073686,-0.36429,-0.20059,-0.061745,-0.42151,0.79271,0.035473,-0.13856,0.51544,-0.54538,0.81658,-0.011731,0.068021,-0.23204,0.32284,-0.65576,0.514,0.20154,0.18184,-0.13095,0.66096,0.55154,0.085954,-0.20249,0.038463,-0.13536,-0.44185,-0.057923,-0.054828,-0.11384,-0.8339,-0.88481,-0.4998,0.52333,0.5596,0.0029688,0.46315,-0.010758,-0.52449,-0.8417,-0.35646,-0.14693,0.0079823,0.55435,-0.60402,-0.10759,-0.44488,-1.0979,-0.55015,0.26406,-0.28628,-0.46844,-0.91497,0.21532,0.37976,-0.72382,0.15948,0.12335,0.50272,0.2649,0.40305,0.42237,-0.14289,-0.04563,-0.25723,-0.3771,-0.14989,0.27287,0.22954,0.59372,-0.5131,0.21934,0.15975,-0.26245,-0.60475,0.30168,-0.18023,-0.56986,0.1734,0.24377,0.11342,-0.041604,0.045965,-0.19351,0.27561,-0.096509,0.070566,0.40259,-0.54634,0.1775,0.51139,0.16604,0.53831,-0.23555,-0.71281,-0.039594,-0.59215,0.44889,-0.22582,-0.25372,-0.30955,0.48012,0.34118,-0.16585,0.064635,-0.90919,0.16071,2.0807e-05,0.71991,0.15203,-0.48605,-0.10832,0.39407,-0.58888,-0.28136,-0.18475,-0.056276,-0.43755,-0.27829,1.0716,0.051883,-0.30397,-0.59852,0.02354,-0.14835,-0.23838,0.20595,-0.53753,0.50217,0.34149,-0.10746,-0.77897,0.569,0.63139,0.11069,0.51662,0.024893,0.25785,0.4673,0.27346,0.88358,-0.44972,-0.20887,-0.19792,-0.21383,-0.34984,-0.066824,0.060841,0.64185,0.098388,-0.48543,0.48705,0.010338,0.062948,0.2081,0.99776,-0.29932,0.41537,0.6942,-0.5886,0.3583,-0.091809,0.93657,-0.17222,0.018134,0.071621,0.3077,-0.18018,-0.47276,-0.03701,-0.52283,-0.21189,-0.67751,0.22113,0.61568,0.35395,-0.99264,-0.089596,0.15524,-0.61011,0.44383,0.2318,0.79106,0.249,-0.52587,-0.24953,-0.22811,0.13976,0.8287,0.077098,0.2455,0.31799,0.32937,-1.0014,-0.15113,-0.094112,0.062293,-0.54179,0.19247,-0.66492,0.46758,0.8563,-0.021019,-0.16153,0.096004,-0.75468,0.024883,-0.45227,0.37007,-0.027789,0.565,-0.2677,0.41542,-0.19729,0.15959,-0.4832,0.24388,14
Ameba,-0.026179,-0.45504,0.042282,0.30682,-0.17188,0.37325,-0.008087,0.47859,-0.32392,-1.922,0.52749,-0.61308,-0.36421,0.26213,0.0040063,0.064275,-0.22584,-1.0647,0.33964,0.2331,0.36927,0.37832,0.14553,0.49589,-0.0971,-0.34196,0.3551,-0.037343,-0.70915,-0.0756,-0.070625,-0.5864,0.26673,0.45429,-1.2668,-0.051211,0.22987,-0.43562,0.5527,0.1632,0.090035,0.52619,0.37002,-0.032973,0.38068,0.16543,-0.1198,-0.4692,0.99706,-0.61614,-0.18487,0.45744,-0.16533,0.1098,0.35574,-0.2224,0.20424,0.15697,-0.25827,-0.49447,0.5398,0.17742,0.22286,0.016711,0.20922,-0.16029,0.20586,-0.61863,-0.037166,-0.22164,-0.26769,-0.8498,-0.66308,-0.083506,0.053646,0.032391,0.17668,0.36532,0.67254,0.34977,-0.3417,0.65373,0.1758,0.13533,-0.12768,-0.040949,-0.054187,-0.34159,-0.59043,0.043472,0.5945,0.084826,-0.91245,-0.13007,-1.4675,1.1943,-0.0077547,-0.42637,0.038514,-0.35682,0.62792,0.39228,0.4476,0.47537,0.10663,-0.13464,-0.044105,0.017537,0.080516,0.056095,-0.70252,0.17299,0.44231,0.619,-0.35055,-0.41322,0.0046589,-0.20201,-0.86581,0.52473,-0.49994,-0.21389,0.46873,-0.58439,-0.017984,-0.64752,-0.21773,0.50045,0.46929,0.35614,-0.05351,0.25948,0.13492,0.39265,-0.33559,-0.46619,0.00085755,-1.1731,-0.69137,-0.36658,0.69746,-0.28156,-0.52368,0.069969,-0.19022,-0.68095,-0.22429,0.1615,-0.66408,0.20354,0.23159,0.068092,0.017652,0.11343,-0.30528,0.36124,0.27983,-0.15023,0.46984,-0.10049,-0.1035,-0.34908,-0.06209,-0.42738,0.78621,-0.054307,0.19517,0.14199,0.075789,0.21347,-0.75763,-0.22886,0.45236,0.10661,0.21409,0.14366,-0.56481,0.34575,-0.26053,-0.0043178,0.14877,-0.019401,0.26946,-0.85837,-0.23468,0.12665,0.23713,-0.029135,-0.23962,-1.2655,0.30414,-0.18569,0.48359,-0.32285,0.18887,0.24319,0.74959,0.33166,0.30506,-0.14242,-0.16137,0.48383,0.53649,0.43322,-0.094372,-0.22168,0.7187,0.2359,-0.20497,0.28084,-0.56031,-0.41984,-0.10974,-0.49051,-0.13825,-0.099809,0.87208,-0.48452,0.63408,0.24971,-0.34479,0.12193,0.48865,-0.016362,-0.50386,-0.17719,0.3202,0.38725,0.015937,0.27143,0.28112,0.78453,0.12928,0.6568,0.31585,-0.0086958,0.17833,0.09764,-0.09053,-0.57888,-0.80156,-0.58174,0.2743,0.31187,0.13715,-0.59626,-0.40894,-0.1556,-1.0571,0.19,0.19491,0.16848,-0.1482,0.70258,-0.53384,-0.33988,-0.52924,0.29443,-0.37358,-0.36419,0.16278,-0.42081,-0.47814,-0.31517,-0.34491,-0.048679,-0.49548,-0.35481,0.06062,0.0088513,0.25573,0.0054511,-0.15191,0.053301,0.19821,-0.3039,-0.70475,-0.16106,-0.36027,-0.21711,-0.42214,0.37285,-0.39349,0.022487,-0.032492,0.39469,-0.22043,0.102,0.41999,-0.33788,-0.44599,-0.18928,-0.12237,0.54476,-0.28805,0.46428,0.6627,0.087916,0.01158,0.39491,9
Weibo,-0.020605,0.18705,-0.0053932,-0.28577,-0.36905,0.085634,-0.036071,-0.36628,0.16299,-0.32249,0.32348,-0.12226,-0.23792,-0.20089,-0.29923,0.61749,-0.18093,-1.1432,-0.34461,0.48686,-0.28808,0.71072,-0.3193,0.61919,0.024867,1.1404,0.27658,-0.048753,0.11402,0.16429,0.74667,0.20468,0.10212,-0.25152,-0.70263,-0.038432,-0.12832,-0.48581,0.46421,-0.48382,-0.25892,-0.67136,0.12652,0.43703,-0.23634,-0.32814,-0.15877,-0.19607,-0.1566,-0.25633,-0.8032,-0.10659,-0.51385,-0.29309,-0.32317,-0.42417,0.091042,-0.27518,-0.21246,0.2329,0.37832,0.98237,0.21087,-0.060963,0.15506,0.082117,-0.11167,-0.71378,0.19124,0.040799,0.34061,0.018627,-0.53595,-0.090665,-0.52807,-0.67465,0.54865,0.37437,0.38091,0.77042,0.41422,-0.17041,-0.5156,0.065583,0.065645,0.17193,-0.52011,-0.63103,-0.011898,-0.16347,-0.27799,-0.59923,-0.06568,-0.23556,0.40176,0.83752,-0.60493,-0.74587,0.54523,-0.16129,0.022482,0.43015,0.18838,-0.88387,-0.053685,-0.78758,-0.37055,-0.59014,-0.0066593,0.14756,-0.51352,-0.27829,0.42414,0.34647,-0.071208,0.30357,0.030307,-0.14405,-0.10328,-0.74717,-0.699,0.59812,0.073208,-0.47283,-0.34574,-0.10235,-0.51797,-0.3374,-0.12847,0.20779,-0.81268,0.19998,0.29051,-0.39136,-0.8192,-0.73455,-0.43529,-0.42936,-0.90298,0.3568,0.34326,-0.030004,-0.27568,0.2992,0.081808,-0.19446,-0.19301,-0.10659,-0.46082,0.47506,0.51319,0.93596,0.46399,0.34661,-0.38365,0.4638,0.22338,-0.044594,0.55867,-0.42898,-0.30925,-0.25951,-0.91516,-0.050262,0.23532,0.10666,0.37698,0.64107,0.26136,-0.14669,0.57719,-0.35155,-0.22194,-0.14686,-0.33335,-0.017498,0.45909,-0.20693,0.046989,-0.2481,-0.22694,0.34304,0.25988,-0.87605,0.22907,0.54064,-0.51328,-0.26202,0.63018,-0.89406,0.14885,-0.098186,0.54651,0.23029,0.2138,-0.4775,-0.18715,0.15895,0.16164,-0.66911,0.051134,-0.12288,0.031524,-0.33644,0.094456,-0.15989,-0.23987,-0.28077,-0.48114,0.063366,-0.47462,-0.74135,-0.26903,0.096304,-0.3049,0.11787,0.39577,-0.22189,-0.51692,-0.012112,0.28408,0.65278,0.089362,0.4422,-0.86242,-0.71819,-0.12743,-0.05888,0.19665,0.011325,-0.060495,0.54625,-0.11561,-0.18815,0.23576,-0.23097,-0.070993,-0.30532,0.46846,0.18104,-0.58368,-0.52743,-0.33,-0.96274,-0.10987,-0.38258,-0.36506,-0.17871,-0.30575,-0.08732,-0.052848,-0.30636,-0.3776,-0.17865,-0.24545,-0.19485,0.096359,0.48517,0.22586,-0.71246,0.85376,0.56123,-0.42051,0.43091,-0.10399,0.19421,-0.48414,-0.036034,0.59164,-0.2918,0.065857,0.23229,-0.17297,0.18791,-0.027854,0.24622,-0.17502,-0.3958,0.58269,-0.17317,-0.2088,0.43066,0.27943,0.33427,-0.64044,0.27054,-0.094405,0.42795,-0.35549,-0.32008,-0.064491,0.34954,1.1204,0.35204,0.26676,0.15778,-0.58097,-0.11494,-0.24181,0.10698,9
Venmo,-0.029598,-0.062275,-0.78548,-0.17821,-0.15978,-0.24868,-0.11779,-0.50936,-0.11046,-1.1329,-0.033905,-0.10186,0.65648,0.55726,-0.45053,0.15587,-0.020311,-1.7303,0.74695,-0.13032,-0.6178,-0.49576,-0.73381,-0.040588,0.28102,0.87429,0.74839,-0.28952,-0.55173,0.1602,1.1626,0.64551,0.2865,-0.57337,-0.86828,0.34699,-0.23281,0.31796,0.97055,0.14903,-0.037351,0.17241,0.46556,-0.58783,-0.2852,-0.2305,-0.024394,-0.39209,0.28505,-0.34763,0.25183,-0.11495,-0.66871,0.424,0.35235,-0.2582,0.5839,0.19546,-0.47043,0.33993,0.50119,0.03715,0.33458,-0.57454,-0.45851,-0.21977,0.44185,-0.23137,0.27947,-0.19025,-0.42153,1.0096,-0.16821,0.08749,0.012671,-1.0071,0.45066,-0.55987,0.20623,0.072973,0.38217,0.55085,0.51431,-0.35209,-0.44154,0.41389,0.83544,-0.0071564,-0.2721,-0.93294,0.59986,-0.13113,-0.78461,-0.16651,-0.37393,0.76896,-0.84444,-0.34646,-1.2416,0.40588,0.38872,0.19287,-0.075303,-0.16143,-0.37662,-0.52901,-0.063654,0.035922,-0.22967,0.182,0.062196,-0.76519,0.029955,0.029086,-0.061315,0.45214,0.68567,0.1982,-0.63984,0.54902,0.065497,-0.32297,-0.060371,0.24894,0.11735,-0.40706,-0.40428,-0.32643,0.28921,-0.024879,-0.65522,-0.055064,-0.051459,0.38859,-1.0577,-0.092815,0.15657,-0.84154,-0.20152,-0.62753,0.88185,0.36208,-0.61309,0.025845,0.15741,-0.66724,0.065172,0.71171,-0.65445,0.37733,0.046552,-0.0089116,0.35437,0.5037,-0.014092,0.72569,0.30811,-0.46321,0.82837,-0.47167,-0.3989,0.26794,-0.05906,-0.063236,0.1454,-0.36243,0.5512,0.17232,0.29316,-0.37037,0.3241,0.41561,0.96359,0.39453,0.65775,0.212,-0.29172,-0.31279,-0.064017,-0.16163,0.30187,-0.41476,0.32578,0.71974,-0.1486,0.72064,-0.6497,-0.22286,-0.29562,-0.62001,0.73488,0.27774,0.096939,-0.86891,-0.19789,-0.33812,0.069041,0.028499,-0.096489,0.2925,-0.61807,-0.16912,0.22278,-0.01756,0.047719,0.31202,-0.55461,-0.46748,-0.20849,-0.0062318,0.28864,-0.35189,-0.037867,0.19495,-0.58092,-0.20874,0.60032,-0.33395,0.65767,-0.49335,-0.15232,0.81553,0.13033,-0.17682,-1.0312,-0.51066,0.42824,-0.24682,-0.022459,-0.45109,0.91209,-0.15992,-0.064316,-0.66732,-0.53396,0.29247,-0.040499,0.49209,0.64976,-0.0044599,-0.46027,-0.045005,-0.78296,0.14094,0.097268,-0.086302,0.44562,-0.16328,0.027256,0.29187,0.032301,-0.77549,-0.23211,-0.82083,0.50564,-0.26509,-0.26087,-0.20308,0.44257,-0.36629,0.23393,0.60725,-0.20262,-0.098214,0.25088,0.46424,-0.17294,0.15954,-0.12099,0.501,0.40244,-0.51439,0.085026,0.67811,-0.21943,-0.26702,-0.42507,0.11224,0.81781,-0.49331,-0.05445,0.91318,-0.75098,0.11454,-0.27517,0.45749,-0.00038894,0.43892,-0.64238,-0.57015,0.96628,-0.73107,0.078867,0.2271,-0.30519,0.138,0.38255,0.93987,-0.59717,-0.34145,5
Sporcle,0.20789,-0.96832,0.082666,-0.34669,-0.8003,-0.29811,0.33535,0.8327,0.57409,-0.76115,-0.89281,-0.55687,0.30141,-0.19051,0.056578,-0.12362,-0.12245,-1.661,0.85194,-0.03225,0.66111,0.42912,0.68365,0.49282,0.18422,-0.0030885,0.22505,-0.23835,0.24241,-0.040591,0.25218,0.40596,0.19385,0.76703,-0.91376,0.14264,0.26993,-0.18227,0.15377,0.042133,0.087168,-0.28251,-0.32212,0.19535,-0.79559,-1.0548,-0.19492,0.25757,0.35561,-0.58805,-0.32626,0.29301,-0.29518,-0.48258,-0.66121,-0.27101,0.17437,-0.12206,-0.44533,-0.37812,-0.14478,1.0112,0.29014,0.65697,0.014936,0.31901,-0.92276,-0.54092,0.28379,0.44404,-0.12889,-0.0091401,0.19808,0.10453,0.6308,-0.12833,0.88135,0.01175,0.59671,0.75327,0.48266,0.078619,-0.2613,0.023156,0.43976,-0.29931,-0.26203,-0.36526,0.36935,-0.1016,-0.22554,-0.64507,-0.41152,0.34353,0.78561,-0.23081,-0.99502,-0.0083528,-0.23678,0.54945,-0.35939,-0.1679,-0.15881,-0.25225,0.63276,0.032451,-0.22176,-1.0554,-0.6281,0.047312,0.048745,0.33847,-0.47311,0.53892,-0.64886,-0.040415,-0.053394,0.97139,0.14945,0.4305,0.47721,-0.26406,0.17017,0.33318,-0.06408,0.23125,0.19164,-0.12222,-0.67156,-0.16808,0.19626,-0.63387,0.10615,0.70409,-0.15612,-1.1901,0.46701,0.024086,-1.265,-0.24036,-0.19516,0.52232,-0.69603,0.43642,-0.092895,0.60753,0.56641,-0.61036,-0.0098462,0.71422,0.54073,0.59352,0.10276,0.65519,-0.37005,-0.52886,0.29618,-0.047368,-0.22629,0.23505,0.22185,-0.80352,0.48475,-0.081316,0.19762,-1.0767,0.019793,-0.18837,-0.039482,0.23999,0.93497,-1.474,0.70428,0.73303,-0.098742,-0.11326,0.42411,-0.22501,-0.27829,0.45617,0.30541,0.1507,-0.59122,0.76876,-0.43491,-0.76144,-0.48154,-0.65139,0.18395,-0.83239,-0.036579,-0.015662,0.16403,-0.21498,-0.019587,-0.0085929,-0.22399,0.95732,0.49529,0.10008,-0.39965,0.27167,0.37759,1.3226,-0.48804,-0.39601,-0.36824,-0.77163,0.64652,-0.465,0.019721,-0.25689,0.27244,-0.11605,0.22227,0.42808,0.11924,0.32019,-0.20534,0.18963,-0.030652,0.82461,-0.97611,-0.33881,0.24388,0.59667,-0.066295,-0.48033,0.22301,-0.095254,-0.66972,-0.099979,-0.1517,-0.21975,0.19037,0.14873,-0.33247,-0.17854,-0.19244,-0.24053,-0.0049335,-0.022201,-0.85821,0.33517,0.47357,-0.70394,0.42656,0.25381,-0.91182,-0.96592,-0.4379,0.10261,-0.37065,0.25348,0.14373,-0.022692,-0.065783,0.12542,0.14609,-0.43678,-0.0088692,0.16413,-0.59963,0.21013,-0.29888,0.25638,-0.64614,0.2643,0.25322,0.43262,-0.41339,-0.40876,-0.3318,-0.069291,-1.0072,-0.70552,-0.47059,0.19287,0.61652,-1.0874,-0.23591,-0.57518,-0.69396,-0.06046,-0.48072,-0.64266,0.23531,-0.35885,0.0956,0.10804,0.3813,-0.36037,-0.49107,0.44821,0.79997,0.1066,-0.81041,-0.10207,0.093986,-0.1264,0
Kik,0.46289,0.44937,-0.28951,-0.16436,-0.17068,0.31827,-0.3425,-0.44805,-0.079983,-1.1515,0.012476,0.048554,0.4746,-0.23927,-0.16797,-0.24277,0.046347,-1.3782,-0.64498,0.24082,-0.26659,0.24394,0.035102,0.37227,0.0017045,0.33326,-0.024103,-0.29292,0.25378,-0.082645,0.84467,0.25771,0.1394,-0.63862,0.074342,0.53131,-0.5509,-0.37842,0.69987,0.23746,-0.014377,-0.70685,-0.035648,0.013966,-0.67489,-0.12465,-0.084873,-0.32791,-0.0056874,-0.25148,0.24093,0.0017782,-0.18039,0.49486,0.6153,0.086558,-0.89162,-0.34992,0.25679,0.095456,0.20436,0.2195,0.18909,-0.04701,0.031735,0.010466,-0.23573,-0.42751,0.36797,0.2603,-0.31807,0.20857,0.013153,-0.4509,-0.50225,-0.12838,0.0091044,-0.34944,0.33836,-0.0036585,0.91937,-0.58764,-0.56384,0.78184,-0.084632,0.35024,0.8403,-0.17178,-0.18885,-0.45592,0.10214,-0.6176,-0.067918,0.47464,-0.1331,0.75994,-0.09636,-0.36962,-0.73105,0.62717,0.63949,0.41072,-0.20444,0.47757,-0.24479,0.33752,-0.51819,0.31382,0.4403,-0.39249,0.21819,-0.046499,-0.3137,0.047666,-0.76682,-0.29489,0.76563,0.16913,-0.038067,0.29987,-0.13287,-0.54637,0.015552,0.16128,-0.12627,0.34376,0.3069,-0.2186,0.010519,0.29031,-0.36246,-0.43868,0.16299,-0.45802,-1.1451,-0.13684,-0.27063,-0.28868,-0.55061,-0.014278,0.083786,-0.04128,-0.56629,-0.33223,0.24516,0.01832,0.1413,-0.11214,-0.73213,0.25945,-0.14004,0.5833,0.052223,-0.53997,0.3253,0.10276,-0.25374,-0.27241,0.028547,-0.11104,-0.43539,-0.059221,-0.022425,-0.32872,-0.10423,0.70164,0.51212,0.69403,0.08824,0.017751,0.078087,-0.075231,0.38145,-0.30083,-0.96117,-0.23613,-0.3971,-0.011609,0.020478,-0.397,0.31908,0.086731,-0.25178,0.36452,0.16617,0.17381,-0.68072,-0.3258,0.16894,-0.89296,0.28892,-0.35148,-0.68619,0.08049,0.24862,0.93889,0.33048,0.071332,0.44962,0.033259,0.35639,-0.17348,0.78345,0.53507,0.15443,-0.20885,0.069144,0.03349,-0.4009,0.10363,-0.35236,-0.43949,-0.061127,-0.40589,-0.39972,0.39851,-0.59403,-0.040165,-0.076415,0.02632,0.062214,0.41467,-0.0025846,0.3395,-0.64314,-0.43044,0.55622,-0.10848,0.03853,-0.4698,0.46166,0.20337,-0.29197,-0.20949,0.65014,0.40588,-0.082613,-0.43332,0.25687,0.17589,0.52745,0.09612,-0.66123,-0.19504,-0.17953,-0.083113,-0.010137,-0.31472,0.049728,0.50288,0.19966,-0.35551,0.04013,0.53174,0.28788,-0.28343,0.14313,0.51478,-0.096952,-0.3218,-0.3654,0.69004,0.40761,0.56979,-0.16019,0.47259,0.10381,-0.067054,0.34774,0.12199,0.15521,0.21449,0.068503,0.19692,-0.29602,-0.49533,0.0085907,-0.10481,0.44117,-0.36398,-0.95022,0.18487,0.47156,0.53767,-0.5475,0.032921,0.047283,0.33968,0.046103,-0.62683,0.090973,-0.61538,0.080898,0.087068,0.3973,-0.018173,0.36317,-0.2001,-0.074157,-0.13928,9
Solitaire,0.35939,0.33135,-0.32784,-0.45757,0.11411,-0.51945,-0.051958,0.1583,-0.17163,-0.88406,0.13231,0.35808,0.18879,0.49562,0.52401,-0.64198,-0.31107,-0.38779,-0.128,-0.58894,0.49639,-0.78517,-0.48675,-0.17318,0.56606,0.033782,1.0416,-0.403,-0.87633,-0.1503,-0.1329,-0.15878,-0.14603,0.48711,-0.17655,-0.31551,0.16059,-0.20691,0.1885,0.0914,0.13154,0.60834,-0.37919,-0.43097,0.49138,-0.36997,-0.54433,-0.063683,-0.064963,0.34525,-0.75614,0.91714,0.53,0.13502,-0.36528,0.19,-0.52427,-0.32337,-0.047727,0.30899,0.30996,0.055012,-0.18574,-0.16273,0.3325,0.38876,-0.070724,0.43522,0.09937,0.088306,0.29159,0.36548,0.099551,-0.39908,0.19669,-0.42337,0.0019352,0.19085,0.17628,0.9804,0.272,-0.26915,-0.25414,0.35154,-0.080328,0.37738,-0.74953,0.81531,-0.57996,-0.3418,0.18541,0.41348,0.025599,0.75234,0.25057,-0.090134,0.21695,0.2592,0.046436,0.15629,0.22781,0.26177,-0.16347,-0.0099277,-0.070715,1.3089,-0.44178,1.0731,0.40827,0.83148,0.88149,0.25504,-0.011269,0.98215,-0.073449,-0.53851,-0.78973,0.33553,-0.10285,0.0028927,0.39362,-0.48031,-0.45565,-0.86746,-0.25584,0.26185,-0.1241,0.34225,-0.17685,-0.45247,-0.32156,-0.31236,-0.63926,-0.092724,-0.1418,-0.10509,0.37785,-0.29599,-0.75738,0.82152,-0.597,-0.20067,-0.19971,-0.25934,-0.47526,0.094597,-0.60533,1.0004,-0.2116,0.052835,0.36661,0.070064,0.47921,0.55981,0.37495,0.094289,0.30375,-0.28856,-0.21158,-0.03422,0.25554,-0.26019,0.219,-0.27269,0.20541,-0.069933,0.74011,-0.51247,-0.24604,-0.29992,-0.18399,0.64459,0.51583,-0.54399,-0.25002,-0.32977,-0.30443,-0.96854,0.32277,0.45632,-0.003952,-0.0053439,-0.29994,0.51887,-0.51627,-0.53071,-0.49848,0.15212,-0.079461,0.085871,-0.53855,-0.19716,0.69509,-0.17787,0.18109,0.038704,-0.38481,0.61921,-0.22561,0.58505,0.1583,-0.55302,0.14992,0.57827,-0.62963,-0.059552,0.13495,0.033368,-0.048903,-0.22533,0.088453,0.063634,0.11961,-0.053605,1.1312,-0.21811,-0.39565,0.021309,-0.1711,0.29955,-0.668,0.21672,-0.75229,0.57224,-0.32675,0.58196,-0.82804,0.31116,0.11394,0.44304,0.24934,0.73061,0.34475,0.62851,0.37813,0.243,0.45731,-0.087508,0.25458,0.036413,0.34453,0.65495,-0.32113,0.45811,-0.32697,-0.62751,0.32834,0.26133,-0.31889,-0.29663,-0.047483,0.19046,0.11653,0.52914,-0.075551,0.35319,0.4685,0.60565,0.15367,-0.55146,0.49124,0.39866,-0.62768,-0.068297,0.27953,0.088791,-0.058526,-0.28923,0.089728,-0.19267,0.018094,-0.11758,0.2969,-0.079601,-0.065273,0.038154,-0.23847,0.1344,-0.33237,-0.50824,0.42747,-0.66064,0.55588,-0.55726,-0.0012162,-0.33036,-0.62504,0.096111,0.10099,-0.17832,0.375,0.0045725,0.042446,0.023005,0.54351,0.31192,-0.45402,-0.41067,0.29464,0.081054,0
